{"input_weights": [[0.07147634029388428, -0.11221002042293549, 0.45040321350097656, -0.20155739784240723, 0.35106801986694336, -0.4894425868988037, -0.3260030746459961, 0.4107428193092346, -0.14452505111694336, -0.02196069061756134, 0.04032856225967407, -0.40262371301651, 0.22722214460372925, 0.4837278723716736, 0.16402649879455566, -0.10457170009613037, 0.3681241571903229, -0.353905588388443, -0.2587302327156067, -0.2695951461791992, -0.5065233111381531, 0.48839232325553894, 0.4861994981765747, -0.6016200184822083, 0.5891126990318298, -0.08809268474578857, -0.14134961366653442, -0.1211208701133728, 0.3683203458786011, 0.01970571279525757, -0.2719285488128662, -0.21209609508514404, -0.15335530042648315, 0.13015216588974, 0.06764090061187744, 0.03784334659576416, -0.4053371548652649, 0.008652448654174805, -0.21580606698989868, -0.020072460174560547, -0.2502095699310303, 0.14834469556808472, -0.32153403759002686, 0.5865302681922913, 0.044513046741485596, 0.0314389169216156, 0.03960686922073364, 0.2700400650501251, -0.09326741099357605, 0.43532466888427734, 0.37666553258895874, -0.33180999755859375, 0.14175665378570557, 0.37062695622444153, 0.17770105600357056, -0.07119226455688477, -0.6921847462654114, 0.08240485191345215, -0.4750039577484131, 0.45428311824798584, 0.4321087598800659, 0.42817550897598267, 0.41224533319473267, 0.23401039838790894, 0.06044524908065796, -0.45595303177833557, 0.30559593439102173, -0.053095221519470215, 0.3662481904029846, -0.3437983989715576, -0.2847195565700531, 0.14866822957992554, 0.28528761863708496, -0.10810592770576477, -0.08519965410232544, -0.4443408250808716, 0.32472825050354004, 0.3190287947654724, 0.15406909584999084, 0.06278982758522034, -0.176876962184906, -0.41225218772888184, -0.42221254110336304, 0.29776298999786377, 0.12166428565979004, 0.0001996457576751709, -0.12609481811523438, 0.274005264043808, 0.2706170678138733, 0.3412354588508606, -0.45903414487838745, 0.1010291576385498, -0.22681419551372528, -0.24272292852401733, -0.28068917989730835, -0.36608922481536865, 0.2080078125, -0.3352006673812866, -0.12525802850723267, 0.18261773884296417, 0.29788321256637573, 0.09339523315429688, 0.3972218632698059, 0.112385094165802, -0.08082622289657593, -0.01667386293411255, -0.30972474813461304, 0.49224185943603516, -0.17027556896209717, 0.22936922311782837, 0.29031938314437866, 0.21552473306655884, -0.28782397508621216, 0.1883946657180786, -0.22949719429016113, -0.18740147352218628, -0.026466473937034607, 0.3016864061355591, 0.22298556566238403, -0.23611485958099365, -0.49512559175491333, 0.3514787554740906, 0.08879807591438293, 0.24705171585083008, 0.06635099649429321, -0.23508495092391968, -0.3877825140953064, 0.4516085386276245], [-0.12763822078704834, -0.24731622636318207, 0.11468063294887543, -0.024048566818237305, 0.14345717430114746, -0.1273542046546936, -0.04450869560241699, 0.18730419874191284, 0.1100040078163147, 0.15571947395801544, -0.2257198691368103, 0.14549922943115234, 0.41417765617370605, 0.45032835006713867, 0.35478007793426514, -0.147161602973938, 0.02302151918411255, 0.0666581392288208, 0.12928999960422516, -0.2852689027786255, 0.05840861797332764, 0.4236838221549988, -0.4678347408771515, 0.08015167713165283, -0.4529958963394165, -0.4579784870147705, 0.04839324951171875, -0.31290555000305176, 0.31733477115631104, -0.49980396032333374, -0.09801459312438965, 0.1539350152015686, 0.11929750442504883, 0.06817847490310669, 0.24895912408828735, 0.5399568676948547, -0.014612793922424316, 0.30894070863723755, -0.3443819284439087, 0.017512500286102295, 0.06995147466659546, 0.03845757246017456, 0.4731677770614624, -0.47601479291915894, 0.6133755445480347, -0.408361554145813, 0.3595570921897888, 0.0842861533164978, 0.32094281911849976, -0.4483708143234253, -0.12060904502868652, 0.07451243698596954, -0.04125545918941498, -0.35917216539382935, -0.06925201416015625, 0.23287397623062134, -0.20153510570526123, -0.6066879630088806, -0.24406230449676514, -0.31726062297821045, -0.3437129855155945, 0.2912631332874298, 0.057001709938049316, -0.1579466462135315, -0.06752991676330566, 0.22408775985240936, 0.08748424053192139, -0.5921820402145386, 0.19640910625457764, 0.4189671277999878, -0.36931800842285156, -0.25385260581970215, 0.21255910396575928, -0.19584017992019653, 0.30847305059432983, 0.20073920488357544, -0.46935635805130005, -0.045433223247528076, -0.15095114707946777, -0.15082955360412598, -0.17974698543548584, -0.3250318169593811, 0.46348124742507935, 0.3014253079891205, 0.46556949615478516, 0.5111154317855835, 0.16234923899173737, 0.4099155068397522, -0.27725857496261597, -0.08256174623966217, 0.32928466796875, -0.032270610332489014, 0.06486457586288452, -0.1563316285610199, 0.10147982835769653, -0.3703494071960449, -0.15001912415027618, 0.4405485987663269, 0.2079867720603943, 0.45203855633735657, 0.21074241399765015, 0.3198123872280121, -0.0021945834159851074, -0.3967018723487854, -0.06409847736358643, 0.33752644062042236, 0.06253542006015778, 0.25587528944015503, -0.10897725820541382, 0.2353113889694214, 0.03832848370075226, 0.09168316423892975, 0.18032829463481903, -0.011471211910247803, -0.07404160499572754, -0.2653757631778717, 0.3637116551399231, -0.07812005281448364, -0.295193076133728, 0.17026954889297485, -0.2691352367401123, -0.06265811622142792, -0.13942378759384155, 0.4971727132797241, -0.33083945512771606, 0.1946074664592743, -0.3906104564666748, -0.1371249556541443], [0.4730169475078583, -0.42044293880462646, -0.14873921871185303, 0.47565072774887085, -0.10819083452224731, -0.054101765155792236, 0.0371134877204895, 0.11697697639465332, -0.2104848325252533, 0.23629862070083618, 0.17353475093841553, 0.04484909772872925, -0.21195298433303833, 0.22855663299560547, -0.09130388498306274, 0.5926998853683472, 0.18376360833644867, 0.3362208902835846, 0.6446453332901001, -0.4178963005542755, 0.19744333624839783, -0.2709468603134155, -0.26058894395828247, -0.30755293369293213, -0.19457793235778809, -0.052965059876441956, 0.07024574279785156, 0.4188610911369324, -0.1461181640625, -0.4213189482688904, -0.18011701107025146, -0.03595876693725586, -0.6230831146240234, 0.17574542760849, -0.15559256076812744, -0.687670886516571, -0.3349367678165436, 0.2824721932411194, 0.273065447807312, 0.045278072357177734, 0.47326141595840454, -0.4765676259994507, -0.09978431463241577, 0.12142133712768555, -0.08845210075378418, 0.40577787160873413, -0.4116020202636719, 0.3142848610877991, -0.1731550693511963, -0.39094167947769165, -0.24890731275081635, 0.5980660915374756, -0.24228829145431519, 0.18395501375198364, 0.32398366928100586, 0.18534046411514282, -0.17438781261444092, 0.4452567398548126, -0.33785873651504517, 0.0685834288597107, -0.2571122646331787, 0.15398739278316498, -0.43381547927856445, 0.3272794485092163, 0.32893407344818115, 0.39217597246170044, 0.2167663276195526, -0.06218627095222473, -0.2786914110183716, 0.180517315864563, 0.20752179622650146, 0.16806167364120483, -0.2786436676979065, -0.49564027786254883, 0.20842903852462769, -0.05475024878978729, -0.32076799869537354, -0.13479949533939362, -0.45520341396331787, -0.19282156229019165, -0.184156134724617, 0.356113076210022, -0.08217555284500122, 0.46801280975341797, 0.23223257064819336, 0.22483354806900024, -0.22521519660949707, 0.24967801570892334, -0.24162670969963074, -0.3406321406364441, -0.35917627811431885, 0.1762388050556183, -0.23473834991455078, -0.17462259531021118, -0.6239129304885864, -0.4516759514808655, -0.11449623107910156, -0.5166018009185791, 0.402495801448822, 0.1391112208366394, 0.07408761978149414, 0.12439481914043427, -0.3541470170021057, -0.03580814599990845, -0.1675989031791687, 0.4759647846221924, -0.24453884363174438, 0.1029614806175232, 0.3672599196434021, 0.0882917046546936, 0.1171574592590332, -0.02540382742881775, 0.039282143115997314, 0.02781611680984497, 0.16311413049697876, 0.46815481781959534, 0.37284761667251587, 0.19621187448501587, 0.29828715324401855, 0.05669581890106201, 0.3187013566493988, 0.22474700212478638, -0.2583721876144409, -0.15032655000686646, -0.06710684299468994, 0.050780653953552246, 0.17943471670150757, 0.1731569766998291], [0.436227023601532, 0.01311507634818554, 0.2532569169998169, 0.11101168394088745, 0.17598506808280945, 0.6125152707099915, 0.2856079339981079, 0.46870893239974976, 0.4064767360687256, 0.28204119205474854, 0.4229612946510315, -0.4217880368232727, -0.2143898606300354, 0.14584964513778687, -0.3822484016418457, -0.11380940675735474, 0.49637138843536377, -0.0032477378845214844, 0.3103184700012207, -0.09127181768417358, 0.4880204200744629, 0.08067852258682251, 0.4436923861503601, 0.7683844566345215, 0.46926042437553406, -0.0628618597984314, 0.3978279232978821, -0.09562945365905762, -0.18344499170780182, -0.11968883872032166, 0.2615729570388794, 0.3351753354072571, -0.15499676764011383, 0.07137435674667358, -0.2472335696220398, -0.06404334306716919, 0.29262828826904297, -0.4231753945350647, -0.19993126392364502, 0.13116101920604706, 0.12799376249313354, 0.11051762104034424, -0.10833755135536194, 0.17183899879455566, 0.3767932057380676, 0.45084521174430847, -0.4638363718986511, 0.21415841579437256, -0.2850780487060547, 0.24994510412216187, -0.22144752740859985, -0.23870384693145752, -0.2499171495437622, -0.2732442617416382, -0.3485719561576843, -0.39476141333580017, -0.29981404542922974, 0.10519641637802124, 0.36946672201156616, 0.08639204502105713, -0.018058598041534424, 0.2573714256286621, -0.008263230323791504, 0.2705509662628174, 0.33233892917633057, 0.07013934850692749, 0.4235723614692688, 0.3727163076400757, -0.14236611127853394, 0.03614038601517677, -0.10253745317459106, 0.5779695510864258, 0.3384626805782318, -0.13269096612930298, 0.011638283729553223, 0.043836891651153564, 0.3962237238883972, -0.15408772230148315, -0.10815340280532837, 0.09152001142501831, 0.17010369896888733, -0.05016523599624634, -0.5686059594154358, -0.08440855145454407, 0.5202407240867615, -0.07021278142929077, -0.4584597945213318, 0.13985741138458252, 0.15771204233169556, 0.39288365840911865, 0.13775968551635742, 0.21863049268722534, 0.24602597951889038, 0.47999489307403564, -0.08030331134796143, 0.04395318031311035, 0.30491214990615845, -0.5107340216636658, 0.3700634241104126, 0.06179940700531006, -0.3487294316291809, 0.0563235878944397, -0.09873733669519424, -0.30830907821655273, 0.024119198322296143, -0.34167933464050293, 0.2168203592300415, 0.13327276706695557, -0.44548487663269043, 0.14825135469436646, -0.2484155297279358, -0.43686753511428833, 0.20124119520187378, 0.15229612588882446, 0.22502261400222778, 0.043791115283966064, -0.3621680736541748, 0.23877441883087158, -0.340546190738678, 0.0012543201446533203, -0.34545373916625977, 0.23815926909446716, 0.31976914405822754, 0.14652228355407715, 0.48245692253112793, 0.09141367673873901, -0.2141176462173462, -0.4975427985191345], [0.43418431282043457, -0.47800517082214355, 0.29527729749679565, 0.22800078988075256, -0.00633317232131958, -0.20423805713653564, 0.23211169242858887, 0.22204850614070892, -0.4545643925666809, -0.06602680683135986, -0.41255873441696167, 0.2069157361984253, -0.4324246644973755, -0.4993028938770294, -0.0731734037399292, 0.010069668292999268, 0.10175622254610062, 0.12738358974456787, 0.34480899572372437, 0.26363927125930786, 0.25718018412590027, 0.1117200255393982, -0.45651549100875854, -0.10873246192932129, 0.01988547295331955, -0.09877592325210571, 0.08614103496074677, 0.07977861166000366, 0.46388399600982666, -0.08274126052856445, -0.4636480212211609, -0.26052016019821167, 0.20669007301330566, -0.3246113657951355, -0.12325882911682129, -0.35947155952453613, 0.4874275326728821, -0.14060348272323608, 0.4006088972091675, -0.007929325103759766, -0.40522876381874084, 0.45667749643325806, -0.041287124156951904, 0.3638872504234314, 0.4088057279586792, -0.41252607107162476, -0.4798804223537445, 0.33407649397850037, 0.054174602031707764, 0.48245900869369507, 0.510515570640564, 0.27372580766677856, 0.45040446519851685, 0.4065827429294586, -0.4823461174964905, 0.29938894510269165, 0.6292042136192322, 0.43050217628479004, 0.2090756893157959, -0.2813335359096527, 0.33065730333328247, -0.5540480017662048, -0.2708529233932495, 0.3589874505996704, 0.3042975068092346, 0.16000932455062866, -0.0238124281167984, 0.16190320253372192, -0.4490664005279541, 0.4496316611766815, -0.1902821660041809, -0.44705724716186523, -0.38608551025390625, 0.046623170375823975, -0.16223835945129395, 0.2450842261314392, 0.23598653078079224, 0.480002224445343, -0.18706971406936646, -0.287270188331604, 0.41212669014930725, 0.46427518129348755, -0.057173192501068115, 0.2910388112068176, -0.31687289476394653, 0.2814100384712219, 0.4254671335220337, -0.19522422552108765, -0.024798255413770676, 0.12148449569940567, -0.3295307755470276, -0.63348788022995, 0.29933565855026245, 0.32395198941230774, -0.49922436475753784, 0.3453451991081238, -0.052248187363147736, -0.037444889545440674, 0.42396432161331177, -0.49666911363601685, -0.08207932114601135, -0.04148459434509277, 0.29558464884757996, 0.39118459820747375, 0.09930694103240967, -0.5118367671966553, -0.49285203218460083, 0.22065553069114685, 0.5434470772743225, -0.13154375553131104, -0.0420878529548645, -0.19671595096588135, -0.1304394006729126, -0.0505179762840271, -0.6256130337715149, -0.10510671883821487, -0.3302781879901886, 0.226548433303833, 0.35177987813949585, 0.19375687837600708, -0.18171197175979614, 0.08766955137252808, 0.3318582773208618, -0.4483831524848938, 0.03231644630432129, 0.45324307680130005, -0.583307683467865, -0.2147071361541748], [-0.1803310513496399, 0.41839107871055603, 0.4193822741508484, -0.057755112648010254, 0.23267024755477905, 0.0632317066192627, 0.28325170278549194, -0.001739501953125, -0.33817076683044434, 0.2666686773300171, 0.024644874036312103, 0.15728797018527985, -0.3601756989955902, -0.43536287546157837, 0.08023867011070251, 0.284151554107666, 0.12348467111587524, -0.0025132745504379272, 0.42266249656677246, 0.0872117280960083, -0.44400471448898315, 0.4669952690601349, -0.4170021414756775, -0.566460907459259, 0.5202651023864746, 0.18594962358474731, -0.3988686800003052, 0.0059328749775886536, -0.13765907287597656, 0.317081093788147, -0.21720311045646667, -0.08752724528312683, -0.25632762908935547, 0.3128659725189209, 0.3881744146347046, 0.4963856339454651, -0.6274546384811401, 0.4323997497558594, -0.2243627905845642, -0.317472368478775, -0.17783212661743164, 0.02417922019958496, -0.31081676483154297, 0.2685697078704834, 0.388393759727478, -0.09198618680238724, -0.36168259382247925, 0.12514805793762207, 0.0309295654296875, 0.48896950483322144, 0.520592451095581, 0.06936182826757431, -0.18765079975128174, -0.6507389545440674, -0.26605719327926636, 0.32302671670913696, -0.11794131994247437, -0.30372583866119385, 0.34760555624961853, -0.14958134293556213, 0.15958271920681, -0.009318679571151733, -0.3960146903991699, 0.36323073506355286, -0.36798131465911865, 0.2153247743844986, -0.14482921361923218, -0.3130568861961365, 0.3494284152984619, -0.5091007351875305, -0.11926227807998657, -0.205813467502594, -0.4229646325111389, 0.12203964591026306, 0.016351044178009033, 0.2347089648246765, 0.04583221673965454, -0.2809692621231079, -0.15292073786258698, 0.3257232904434204, 0.009872674942016602, 0.33427345752716064, 0.18760940432548523, -0.3552982807159424, -0.08712714910507202, 0.024920782074332237, 0.2281351536512375, -0.26387086510658264, -0.34101924300193787, 0.31763720512390137, 0.03824472427368164, 0.31858575344085693, -0.26956385374069214, -0.2585844397544861, -0.08339500427246094, -0.24904096126556396, -0.09211325645446777, -0.14462727308273315, -0.20696622133255005, 0.35603946447372437, -0.33989307284355164, 0.3613659143447876, 0.10259354114532471, -0.34028059244155884, -0.4453815519809723, 0.38361042737960815, 0.1857057809829712, -0.18947690725326538, -0.21425378322601318, 0.47371965646743774, -0.2708670496940613, 0.2033805251121521, -0.47573888301849365, -0.08104813098907471, -0.11039870977401733, -0.10150504112243652, 0.1138654351234436, 0.29636770486831665, -0.08503416925668716, -0.036797523498535156, -0.14142674207687378, -0.47820812463760376, 0.4566763639450073, 0.11612874269485474, -0.5308226943016052, 0.3052789568901062, 0.040835171937942505, 0.012393161654472351], [-0.2317308783531189, -0.540172278881073, -0.0527045875787735, -0.008173823356628418, 0.17376598715782166, -0.23352135717868805, -0.3596876263618469, 0.4106287360191345, 0.2097976803779602, 0.19909530878067017, -0.4277953803539276, -0.6173245906829834, -0.03330492973327637, 0.11541169881820679, 0.17570751905441284, 0.4285472631454468, -0.4363371729850769, -0.45075660943984985, -0.06302773952484131, 0.0061304569244384766, 0.015179336071014404, -0.3425752520561218, 0.30295222997665405, 0.47688907384872437, -0.4756919741630554, -0.09400242567062378, 0.4728706479072571, -0.29006868600845337, 0.015784859657287598, 0.31081974506378174, 0.14434462785720825, 0.40126699209213257, -0.09514868259429932, -0.43499475717544556, -0.3625885546207428, 0.3633759617805481, 0.4091370701789856, 0.03834080696105957, 0.46610915660858154, 0.16175562143325806, -0.14774590730667114, 0.1414729356765747, 0.21052934229373932, 0.0734567642211914, -0.0691995620727539, -0.49058598279953003, 0.20219041407108307, -0.4319241940975189, -0.2930196523666382, 0.5699108839035034, 0.40388786792755127, 0.5750656127929688, 0.18020063638687134, 0.024140894412994385, -0.24092689156532288, -0.36556506156921387, 0.34514516592025757, 0.010421931743621826, -0.594713032245636, 0.07461625337600708, 0.17036712169647217, -0.10185819864273071, 0.41633403301239014, 0.0411374568939209, -0.0727723240852356, 0.4643633961677551, -0.4966384768486023, -0.31119221448898315, 0.024652600288391113, 0.4306829571723938, -0.018649041652679443, -0.09815430641174316, 0.17373651266098022, 0.6578108668327332, 0.5063678026199341, 0.19786667823791504, -0.41834646463394165, 0.050754547119140625, 0.14311447739601135, 0.40700364112854004, 0.5885879397392273, 0.493073046207428, -0.5181175470352173, -0.10176587104797363, -0.21973931789398193, -0.13102710247039795, 0.4208810329437256, -0.07922285795211792, 0.12385880947113037, 0.4420667290687561, -0.27807265520095825, 0.3084331154823303, 0.29583388566970825, 0.005012840032577515, -0.32149738073349, 0.2561260461807251, 0.27729982137680054, -0.33519279956817627, -0.13929879665374756, -0.09703129529953003, -0.18117791414260864, -0.4309454560279846, -0.10724818706512451, 0.4140671491622925, 0.5047292709350586, -0.2524837851524353, -0.16747939586639404, 0.029722772538661957, -0.31554722785949707, -0.24242417514324188, -0.4875747561454773, 0.49854373931884766, 0.20242740213871002, -0.3160804510116577, -0.0419011116027832, -0.08531546592712402, -0.012609481811523438, 0.01594442129135132, 0.0975780189037323, 0.3323615789413452, 0.4965834617614746, 0.34344682097435, 0.004829619079828262, -0.06823092699050903, -0.4078786373138428, -0.4489140510559082, -0.4723024368286133, 0.2660524845123291], [-0.42541033029556274, -0.4307430386543274, 0.47508078813552856, 0.5587717890739441, -0.42517977952957153, 0.055674970149993896, -0.4205694794654846, 0.37653636932373047, -0.3529151678085327, 0.16629558801651, 0.4005943536758423, 0.06332987546920776, -0.2892928719520569, -0.02265571989119053, -0.16352245211601257, -0.10969501733779907, -0.17040205001831055, -0.380291223526001, -0.2791067063808441, 0.13737046718597412, -0.37536895275115967, -0.2970549762248993, -0.20034140348434448, 0.4689798355102539, 0.3255927562713623, 0.22268939018249512, -0.29192060232162476, -0.2954123616218567, 0.23983529210090637, -0.32597067952156067, -0.16883474588394165, 0.02931046485900879, -0.4650481343269348, 0.11313451826572418, 0.37721771001815796, -0.49833470582962036, -0.3115023970603943, -0.025774424895644188, 0.3680685758590698, 0.1010393500328064, 0.22565072774887085, 0.5410981178283691, 0.29624998569488525, -0.372492253780365, -0.13329005241394043, -0.39720627665519714, -0.22555452585220337, -0.28953176736831665, -0.4994426369667053, 0.4305054545402527, 0.35243719816207886, -0.21469134092330933, 0.1667352318763733, 0.02645616978406906, -0.08883316814899445, -0.18792152404785156, 0.6357263326644897, -0.34706610441207886, 0.4063548445701599, 0.36605149507522583, 0.3235914707183838, -0.36327338218688965, 0.3776206374168396, -0.4646156430244446, 0.2094820737838745, 0.2564584016799927, -0.34037554264068604, -0.07662016153335571, 0.24095773696899414, -0.18991780281066895, 0.05328744649887085, 0.4877634048461914, -0.3080987334251404, -0.35010218620300293, -0.4025545120239258, 0.10001277923583984, 0.1591334342956543, 0.1352800726890564, 0.4308702349662781, 0.24463170766830444, 0.14405524730682373, -0.4201308488845825, 0.32276201248168945, 0.4217766523361206, 0.27813440561294556, -0.12673890590667725, 0.1381392478942871, 0.1258503794670105, 0.04124191403388977, -0.07060176134109497, -0.2521774172782898, -0.5891406536102295, -0.2786392569541931, 0.2684638500213623, 0.4455271065235138, -0.10297787189483643, 0.17841118574142456, -0.8711581230163574, -0.23307476937770844, -0.07305783033370972, -0.08312392234802246, -0.04525846242904663, 0.3838847279548645, 0.14054971933364868, -0.04815398156642914, -0.4178931713104248, 0.4552098512649536, -0.35990631580352783, -0.4545069932937622, 0.3261783719062805, -0.24963612854480743, 0.14010848104953766, 0.3395114839076996, -0.73183673620224, -0.1550750732421875, -0.4471067786216736, 0.06873655319213867, -0.37695378065109253, -0.2883596420288086, 0.05672043561935425, 0.7149645090103149, -0.1731831431388855, 0.0550270676612854, -0.41915732622146606, 0.2845248579978943, 0.3668557405471802, 0.3394804000854492, 0.46543365716934204], [-0.4524288773536682, 0.22467327117919922, 0.19963324069976807, -0.01572863757610321, 0.3043864965438843, 0.17600303888320923, -0.33343738317489624, 0.5111832618713379, -0.26493149995803833, 0.382861852645874, -0.39864951372146606, -0.07319068908691406, -0.2544395327568054, 0.047144174575805664, -0.19094417989253998, 0.3902737498283386, 0.46995580196380615, 0.3707730174064636, -0.42250269651412964, -0.47410887479782104, -0.4304403066635132, 0.34278959035873413, -0.33321672677993774, -0.1665552258491516, 0.22350811958312988, 0.04355110228061676, 0.20627152919769287, -0.37841224670410156, 0.03884685039520264, -0.03704822063446045, 0.14921170473098755, -0.4500432014465332, -0.1850489377975464, 0.20994681119918823, 0.25429201126098633, 0.07910548150539398, -0.24684247374534607, 0.2705082893371582, -0.23225246369838715, -0.005757629871368408, 0.28271883726119995, -0.1102977991104126, 0.49602586030960083, -0.4185085892677307, -0.08808267116546631, -0.4724419116973877, -0.047921180725097656, 0.13788586854934692, -0.46122878789901733, 0.3114582896232605, 0.22173196077346802, -0.4404110312461853, 0.25363093614578247, -0.027108371257781982, 0.4400612711906433, 0.030572474002838135, 0.15415877103805542, -0.399585098028183, -0.09097439050674438, 0.35673418641090393, -0.005128979682922363, -0.32697349786758423, 0.3844669461250305, 0.1972084790468216, -0.38969048857688904, -0.22759854793548584, 0.14574727416038513, 0.31668227910995483, -0.1746792197227478, 0.13850998878479004, 0.3531825542449951, -0.0868462324142456, -0.23481187224388123, 0.20608466863632202, 0.4799409508705139, 0.17440420389175415, 0.3567831516265869, 0.4523225426673889, -0.29786205291748047, 0.06678646802902222, -0.25448912382125854, -0.05186474323272705, -0.18748882412910461, -0.24180489778518677, 0.0248754620552063, 0.5674667954444885, 0.0443115159869194, -0.271633118391037, 0.3234260082244873, -0.3819049596786499, 0.4618653655052185, 0.22708261013031006, -0.43059754371643066, -0.2783077359199524, -0.4855111241340637, -0.4685482680797577, -0.37813901901245117, 0.0690317153930664, 0.1286211907863617, -0.3111543655395508, 0.27233606576919556, -0.0739331841468811, -0.3522207736968994, -0.19455456733703613, -0.20681872963905334, 0.3954097032546997, -0.36639195680618286, 0.12944787740707397, 0.4355299174785614, 0.4340931177139282, -0.4904220998287201, -0.11325269937515259, 0.34748631715774536, -0.37246590852737427, 0.09812790155410767, 0.25865715742111206, -0.09723794460296631, -0.4925658106803894, -0.05769079923629761, 0.05560612678527832, 0.27320003509521484, -0.45520949363708496, -0.06294840574264526, -0.36278843879699707, 0.03545868396759033, -0.1107407808303833, -0.01865565776824951, -0.3256111145019531], [-0.22643476724624634, 0.07516030967235565, 0.27261191606521606, 0.12927848100662231, -0.35255926847457886, -0.45233088731765747, -0.04237407445907593, -0.1706998199224472, -0.19745254516601562, 0.30097806453704834, -0.47055739164352417, 0.1607145071029663, 0.0956677794456482, 0.11536937952041626, -0.21215564012527466, -0.20112939178943634, -0.016793549060821533, 0.06918805837631226, 0.19918280839920044, 0.1869504451751709, -0.5560325384140015, -0.13904136419296265, 0.3390333652496338, -0.0026979967951774597, 0.4740583896636963, 0.6088401079177856, 0.11021637916564941, -0.3508141040802002, -0.06946510076522827, -0.3119613528251648, -0.13939893245697021, -0.3586716055870056, -0.48717832565307617, -0.4066697359085083, -0.1601496934890747, 0.09715092182159424, -0.39719533920288086, -0.20847156643867493, 0.29173019528388977, 0.124630868434906, 0.060963258147239685, -0.13374727964401245, 0.24852688610553741, -0.022646605968475342, -0.26312410831451416, -0.488128125667572, -0.011529982089996338, -0.33619022369384766, -0.1399780809879303, -0.2241315245628357, 0.47262459993362427, -0.2313266396522522, 0.3678396940231323, 0.14821767807006836, -0.16938553750514984, -0.2039192020893097, 0.07371890544891357, 0.11866456270217896, 0.07545661926269531, -0.09018148481845856, -0.06668174266815186, 0.5847225189208984, -0.1717626452445984, -0.31307411193847656, 0.13294386863708496, -0.25271230936050415, -0.03977787494659424, 0.17735111713409424, -0.21196205914020538, -0.3270999789237976, 0.2875344753265381, -0.0313800573348999, 0.11740905046463013, -0.11107134819030762, 0.2464943528175354, 0.23532691597938538, 0.06286996603012085, 0.44768619537353516, -0.26346608996391296, 0.07396090030670166, -0.2782769799232483, -0.0653650164604187, 0.25333452224731445, 0.15826809406280518, 0.1966915726661682, -0.12876281142234802, 0.3302571773529053, 0.09938862919807434, 0.17224276065826416, 0.34687340259552, 0.39410400390625, 0.3592519760131836, -0.05960148572921753, 0.5054352283477783, -0.4689481854438782, 0.2873935103416443, -0.3360576331615448, -0.09291033446788788, 0.11960071325302124, -0.4813304841518402, -0.3625538945198059, -0.016604244709014893, 0.36046457290649414, 0.3079042434692383, 0.1675044298171997, 0.4960232377052307, -0.18253064155578613, -0.42531806230545044, -0.4038117527961731, 0.16980010271072388, 0.08987259864807129, 0.5602660179138184, -0.4760695695877075, -0.1579916775226593, 0.279227077960968, -0.3120855689048767, 0.3235049843788147, -0.076102115213871, 0.34633874893188477, -0.6410384178161621, 0.4267351031303406, 0.10050437599420547, 0.4006692171096802, 0.17709621787071228, 0.21031421422958374, -0.13374775648117065, -0.05842876434326172, 0.018861711025238037], [0.06078505516052246, 0.005361974239349365, -0.4510987401008606, -0.49897903203964233, 0.05294966697692871, -0.22275692224502563, -0.07744807004928589, 0.1485152244567871, -0.13976478576660156, 0.3971770405769348, 0.13620135188102722, -0.019640624523162842, -0.02960282564163208, -0.5014575123786926, 0.2567075490951538, 0.1738341599702835, -0.20891445875167847, 0.07938416302204132, -0.2967301607131958, 0.4217284321784973, -0.10443070530891418, 0.14743268489837646, 0.24792367219924927, 0.03227025270462036, -0.1907673180103302, 0.3763747215270996, -0.4493970274925232, 0.19641156494617462, 0.38756072521209717, 0.28300267457962036, 0.06538629531860352, -0.09066665172576904, 0.04105716943740845, 0.08407485485076904, -0.27498841285705566, -0.06434983015060425, 0.009588547050952911, 0.39863723516464233, -0.10920652002096176, -0.2048531174659729, 0.4886600375175476, -0.26570814847946167, -0.4508938193321228, 0.11699569225311279, 0.03004556894302368, 0.39803314208984375, -0.2074948251247406, -0.25795960426330566, 0.20759059488773346, 0.4984714984893799, 0.38798874616622925, 0.06942975521087646, -0.41110098361968994, 0.2823377847671509, 0.13165271282196045, -0.5616454482078552, 0.44517529010772705, 0.22117501497268677, -0.3858513832092285, -0.0034637697972357273, -0.4217543601989746, -0.38768020272254944, -0.5223588943481445, 0.2645756006240845, -0.48176825046539307, 0.19225876033306122, 0.3141653537750244, -0.463148295879364, 0.49037402868270874, -0.1190909743309021, 0.49816855788230896, -0.37530267238616943, -0.26521265506744385, 0.21317028999328613, -0.45920610427856445, -0.20609605312347412, 0.4597322642803192, 0.44798535108566284, 0.42406272888183594, 0.26429229974746704, -0.048101603984832764, 0.35936278104782104, -0.5394113063812256, -0.431845486164093, -0.06930029392242432, -0.019007980823516846, 0.39329248666763306, -0.18793225288391113, -0.4098886251449585, 0.288729727268219, 0.4138621985912323, -0.18772873282432556, 0.3246116042137146, 0.2083633542060852, 0.27403634786605835, -0.46178770065307617, 0.45018577575683594, -0.05572390556335449, 0.09339898824691772, 0.13764351606369019, 0.16085809469223022, -0.45427393913269043, 0.04909235239028931, -0.4940376281738281, -0.02939830906689167, 0.4342154264450073, -0.3242136538028717, 0.1750696301460266, 0.48767489194869995, -0.44395768642425537, -0.009265303611755371, 0.29279252886772156, -0.3106118440628052, 0.27043431997299194, 0.40871912240982056, 0.5738346576690674, -0.08833791315555573, -0.1938173770904541, -0.4669230878353119, -0.10608988255262375, 0.195601224899292, -0.15450803935527802, -0.09746354818344116, 0.2541452646255493, 0.1886521577835083, 0.09906868636608124, 0.3430889844894409, -0.06362682580947876], [-0.38962167501449585, 0.44145554304122925, -0.08433431386947632, -0.46707677841186523, -0.005029737949371338, 0.25591567158699036, -0.10842370986938477, 0.05328953266143799, -0.010351300239562988, -0.277701735496521, -0.31041455268859863, 0.3944290280342102, -0.15722870826721191, 0.11708241701126099, 0.04202356934547424, -0.13695192337036133, -0.025607943534851074, -0.12127047777175903, -0.4452613592147827, -0.4068056344985962, 0.03938251733779907, -0.3417535424232483, -0.05469334125518799, -0.04910846799612045, -0.24366986751556396, -0.2503196597099304, -0.09052644670009613, 0.37735116481781006, -0.2468472123146057, 0.11625301837921143, 0.31278330087661743, 0.14773637056350708, -0.010428905487060547, 0.22850680351257324, -0.33190688490867615, 0.2082974910736084, 0.30201637744903564, 0.17724503576755524, 0.33387619256973267, -0.006607949733734131, 0.17729735374450684, 0.46279698610305786, 0.0462183952331543, -0.22447514533996582, -0.4365876317024231, -0.11943411827087402, 0.054783523082733154, 0.10810475051403046, 0.08018755912780762, 0.27771422266960144, 0.3259214758872986, -0.32689130306243896, 0.3989804983139038, -0.24597620964050293, 0.11638259887695312, 0.08073168992996216, 0.11533994972705841, 0.11671692132949829, -0.3373776078224182, 0.32132863998413086, -0.17406988143920898, -0.08566409349441528, 0.14571915566921234, -0.027699768543243408, 0.26533305644989014, -0.4258967638015747, 0.4866029918193817, 0.4490683674812317, 0.3506695628166199, 0.11665517091751099, -0.23864930868148804, 0.23060226440429688, -0.42770564556121826, 0.33277416229248047, 0.015742920339107513, -0.3681572675704956, -0.4122961163520813, -0.4314410090446472, 0.10083746910095215, -0.4804653525352478, 0.04369740933179855, -0.3359529972076416, 0.1562529355287552, 0.2895750403404236, 0.02899038791656494, 0.1444801241159439, -0.20191791653633118, 0.47381991147994995, 0.21034467220306396, 0.20820701122283936, -0.24330437183380127, 0.1311466097831726, 0.36366331577301025, -0.12514227628707886, 0.386339008808136, 0.1549326628446579, 0.09328341484069824, -0.022549986839294434, 0.3166224956512451, 0.25429874658584595, -0.35253334045410156, 0.002697870135307312, -0.4011717438697815, -0.03414273262023926, -0.2163679599761963, -0.7648831605911255, -0.5524470806121826, 0.25963294506073, -0.4395788908004761, 0.19476240873336792, 0.09340978413820267, 0.17059528827667236, -0.47721433639526367, 0.05647772550582886, 0.2826721668243408, -0.36656808853149414, -0.3041324019432068, -0.2957572937011719, 0.07943862676620483, 0.2099452018737793, 0.20650452375411987, -0.39243149757385254, -0.07343846559524536, -0.49601882696151733, 0.15351146459579468, -0.13015538454055786, 0.5526032447814941, 0.4216124415397644], [-0.2542493939399719, 0.2259984016418457, -0.10886230319738388, -0.24126040935516357, 0.48044681549072266, -0.0752030685544014, -0.20975036919116974, 0.0022935420274734497, -0.24628645181655884, 0.42111819982528687, -0.25464195013046265, -0.14749190211296082, 0.41904711723327637, -0.06752467155456543, -0.15958797931671143, 0.056487008929252625, -0.2772217392921448, -0.4234910011291504, -0.11658555269241333, 0.49286073446273804, -0.44214361906051636, 0.29527783393859863, 0.3313993215560913, 0.3528488278388977, 0.31935811042785645, -0.539779782295227, 0.08948016166687012, -0.24658560752868652, -0.0916941910982132, -0.19057278335094452, -0.1813180297613144, -0.17579537630081177, -0.09201741218566895, 0.5626288056373596, 0.10077965259552002, -0.0852922797203064, 0.42763611674308777, -0.4880180358886719, 0.2923901081085205, 0.21243274211883545, -0.01886051893234253, 0.3624962866306305, -0.2687007188796997, -0.23224681615829468, 0.4395521879196167, -0.3520509600639343, -0.17994379997253418, 0.19950538873672485, -0.32985609769821167, 0.32144200801849365, -0.0026767849922180176, -0.04808952659368515, -0.10084671527147293, 0.18460682034492493, 0.16325587034225464, 0.49490249156951904, -0.02068924903869629, -0.2082916647195816, -0.4102860689163208, -0.31498801708221436, -0.1343863606452942, -0.4395570755004883, -0.10670177638530731, 0.46404874324798584, 0.0373806357383728, -0.3988766670227051, -0.30818450450897217, -0.37258315086364746, 0.5536652207374573, -0.12293171882629395, -0.4898880124092102, 0.5406491160392761, 0.38518834114074707, -0.35446232557296753, 0.26540523767471313, -0.17088794708251953, -0.31191307306289673, -0.6071548461914062, -0.40997254848480225, -0.20103007555007935, 0.15044406056404114, -0.511925995349884, -0.018937408924102783, 0.5061813592910767, -0.023102417588233948, 0.1826571226119995, -0.05382627248764038, -0.4837634563446045, 0.30536913871765137, 0.4971962571144104, -0.38518935441970825, -0.379757821559906, 0.04839247465133667, 0.13641566038131714, 0.026997461915016174, 0.4114559292793274, -0.023226261138916016, -0.3567356467247009, 0.15099960565567017, -0.3435389995574951, 0.4696178138256073, -0.1405571699142456, -0.20551735162734985, 0.29675304889678955, 0.14281326532363892, -0.24845963716506958, 0.35307276248931885, -0.21468335390090942, -0.11452013999223709, 0.2535907030105591, 0.09403562545776367, 0.48088741302490234, 0.014316320419311523, 0.29902172088623047, -0.08761298656463623, 0.105404332280159, -0.12421643733978271, -0.2423890233039856, 0.49004435539245605, -0.11309236288070679, -0.22274178266525269, 0.3749546408653259, -0.011119425296783447, -0.05894953012466431, 0.027446923777461052, -0.29902908205986023, 0.45431822538375854, -0.0564153790473938], [0.14067234098911285, 0.38441038131713867, -0.08576184511184692, 0.09947484731674194, -0.38286828994750977, -0.30303770303726196, -0.28724902868270874, -0.1650652289390564, -0.13134361803531647, -0.20218907296657562, 0.369187593460083, 0.33147406578063965, -0.020668089389801025, -0.06250697374343872, -0.5535277724266052, 0.3712427020072937, -0.23648107051849365, 0.3228168487548828, -0.20203837752342224, -0.3590296506881714, -0.2910681366920471, -0.23699241876602173, -0.33612775802612305, -0.27734196186065674, -0.4666895270347595, -0.528568685054779, 0.05876976251602173, -0.3719251751899719, -0.3198813796043396, -0.30017000436782837, -0.17194202542304993, -0.23902678489685059, 0.1953573226928711, -0.11862127482891083, -0.44938838481903076, -0.09350253641605377, -0.06316179037094116, -0.12679502367973328, 0.1080302894115448, 0.3911281228065491, -0.0946492999792099, -0.1621597409248352, 0.25571292638778687, -0.05588871240615845, -0.05490219593048096, 0.4664289951324463, -0.010874122381210327, -0.3583720922470093, -0.1863916516304016, 0.3295106291770935, -0.4632352888584137, -0.40811169147491455, -0.20272302627563477, 0.18427887558937073, -0.1507178544998169, 0.44629383087158203, 0.2619527578353882, 0.013140279799699783, -0.08990699052810669, 0.10896188020706177, -0.19433289766311646, 0.3770161271095276, 0.0017583370208740234, 0.18706119060516357, 0.017901062965393066, -0.47498083114624023, 0.11169475317001343, -0.015707433223724365, 0.2779107689857483, 0.05222085118293762, 0.4135831594467163, -0.21608692407608032, -0.01777803897857666, -0.16417893767356873, 0.006963968276977539, 0.3441798686981201, -0.4101877808570862, 0.4681328237056732, -0.52973473072052, -0.2649325728416443, -0.13926780223846436, 0.1938556432723999, 0.2004520297050476, -0.19806420803070068, -0.5810670852661133, -0.42132365703582764, 0.34548527002334595, 0.029568493366241455, 0.17696163058280945, 0.4710855484008789, -0.150407612323761, -0.3412867784500122, -0.17759084701538086, 0.25288403034210205, 0.358844518661499, 0.15907615423202515, -0.10879839956760406, -0.07341200113296509, 0.3535205125808716, 0.1671597808599472, -0.22198987007141113, 0.05288342013955116, 0.49161237478256226, 0.03911471366882324, -0.23138684034347534, 0.037216246128082275, -0.10829538106918335, -0.17328141629695892, -0.13246439397335052, -0.4050924777984619, 0.10518617928028107, -0.1446319818496704, 0.43933236598968506, -0.3550700545310974, 0.2392113208770752, -0.419291615486145, -0.3292583227157593, 0.27494245767593384, -0.01924775540828705, -0.036193251609802246, -0.14377951622009277, 0.1758476197719574, 0.1323516070842743, -0.2800520062446594, -0.3106359839439392, 0.13107800483703613, 0.32257044315338135, -0.22674816846847534], [0.15338397026062012, 0.11617748439311981, -0.03160524368286133, -0.2999565601348877, 0.2492731213569641, -0.06357616186141968, -0.3487604558467865, -0.6346079111099243, -0.4938805103302002, -0.08014261722564697, -0.4838132858276367, -0.0498771071434021, 0.49124622344970703, 0.03867608308792114, -0.24108493328094482, 0.3072633743286133, -0.018984615802764893, 0.18798589706420898, -0.0465472936630249, -0.48486530780792236, -0.25407999753952026, -0.23633797466754913, -0.2962864637374878, 0.1630656123161316, 0.1506509780883789, -0.1915285587310791, -0.228099524974823, 0.05620914697647095, 0.16380810737609863, -0.11971015483140945, -0.039349377155303955, 0.48963427543640137, -0.29570019245147705, -0.3446338176727295, 0.0251467227935791, 0.4925122857093811, 0.32457786798477173, -0.2805141806602478, -0.04037952423095703, -0.18276387453079224, 0.3751766085624695, -0.009538233280181885, -0.0010831207036972046, -0.22055953741073608, -0.27173471450805664, -0.0511128306388855, -0.47461938858032227, 0.3191326856613159, 0.0008364617824554443, -0.0007275938987731934, 0.21716833114624023, -0.00997304916381836, -0.40059858560562134, -0.0882996916770935, 0.22188854217529297, -0.20450729131698608, -0.2471587210893631, -0.390360027551651, 0.0938262939453125, 0.4632686972618103, 0.004465878009796143, 0.1328011155128479, 0.26587849855422974, 0.17105859518051147, -0.1344665288925171, 0.09948235750198364, 0.12034223228693008, 0.02934885025024414, 0.42626285552978516, -0.05856463685631752, 0.37461262941360474, 0.3851088285446167, -0.48761898279190063, -0.6356902718544006, 0.4144812226295471, 0.144273579120636, -0.6076006889343262, -0.06850369274616241, 0.25827670097351074, 0.28249895572662354, -0.16545946896076202, 0.2843388617038727, 0.1191568374633789, 0.43632882833480835, -0.11735856533050537, -0.15932494401931763, 0.3378147482872009, -0.39754968881607056, -0.06852114200592041, -0.011247806251049042, -0.4291861653327942, -0.18266963958740234, -0.19950628280639648, 0.11915010213851929, 0.07714328169822693, 0.16085661947727203, 0.286752313375473, 0.40549951791763306, -0.5001201629638672, 0.4425247311592102, 0.2726026177406311, -0.33196431398391724, 0.08541832864284515, 0.47099995613098145, -0.3836975693702698, -0.3750966191291809, 0.13827641308307648, -0.11259415000677109, 0.11811336874961853, 0.4268873929977417, 0.3555762767791748, -0.05086708068847656, 0.26514875888824463, -0.3559694290161133, 0.44730502367019653, -0.24009497463703156, 0.10640716552734375, 0.4809415936470032, -0.15023458003997803, 0.273958683013916, -0.38032448291778564, 0.3861098885536194, -0.17492449283599854, 0.003333866596221924, -0.18131977319717407, 0.32352662086486816, 0.13696667551994324, 0.3351758122444153], [-0.08341193199157715, -0.05245763063430786, 0.04119759798049927, 0.14039655029773712, 0.28803521394729614, -0.3258436918258667, 0.2984243631362915, 0.2969502806663513, 0.01419985294342041, 0.4145660400390625, 0.24289560317993164, -0.47622090578079224, 0.3464773893356323, -0.4704994559288025, 0.3519957661628723, -0.21411466598510742, 0.05696319788694382, 0.3042583465576172, -0.1751822829246521, -0.041998185217380524, 0.03969978913664818, 0.04863858222961426, -0.22167092561721802, 0.04409128427505493, 0.16972512006759644, -0.22457361221313477, 0.11962026357650757, -0.04449111223220825, -0.2558456063270569, 0.4359976649284363, 0.3168081045150757, 0.37962764501571655, -0.0654645562171936, 0.027749598026275635, 0.09174638986587524, -0.24396350979804993, -0.08364049345254898, 0.35767704248428345, 0.08176717162132263, -0.03190046548843384, -0.14763641357421875, -0.36036592721939087, -0.1853022277355194, -0.11559927463531494, -0.007734954357147217, 0.4126579761505127, 0.46738970279693604, 0.26737552881240845, 0.2153623104095459, 0.2076171636581421, 0.45175430178642273, 0.10484319925308228, 0.17734530568122864, -0.3905062675476074, -0.15165305137634277, 0.023330867290496826, -0.20594161748886108, 0.035338401794433594, 0.1707325130701065, 0.13493414223194122, 0.0020538121461868286, -0.4194503128528595, -0.4212356209754944, 0.40008679032325745, 0.26184165477752686, -0.6503415107727051, 0.2844093441963196, 0.09004777669906616, -0.18665772676467896, -0.5395937561988831, -0.5259462594985962, 0.27667105197906494, 0.04576998949050903, -0.21946394443511963, 0.14407879114151, -0.3233342170715332, 0.039747923612594604, -0.20251202583312988, 0.46160101890563965, -0.2197694182395935, 0.05123880133032799, 0.10541176795959473, -0.0510408878326416, -0.2657099962234497, -0.34438252449035645, 0.09170573949813843, -0.3102583885192871, 0.32430481910705566, 0.19741716980934143, 0.47803211212158203, -0.21709686517715454, -0.453795850276947, 0.13922210037708282, 0.29475438594818115, -0.038289014250040054, 0.4431096315383911, 0.3801373243331909, -0.08925282955169678, 0.46722063422203064, -0.29454684257507324, -0.35638248920440674, -0.07532812654972076, -0.161166250705719, 0.005846358835697174, -0.058753132820129395, 0.08649993687868118, 0.15463513135910034, 0.12932175397872925, 0.2868841290473938, -0.32732975482940674, 0.1964707225561142, 0.11491936445236206, -0.22390961647033691, -0.4681330919265747, 0.5840532183647156, 0.2659447491168976, -0.3519513010978699, 0.1286022663116455, 0.4711598753929138, -0.20080524682998657, -0.27054542303085327, 0.06951725482940674, 0.47431445121765137, 0.2086191177368164, -0.04525858163833618, 0.47949546575546265, -0.25931262969970703, 0.2112141251564026], [0.43862617015838623, -0.27242037653923035, -0.4660342335700989, 0.182836651802063, 0.3614576756954193, 0.31736332178115845, -0.4890868663787842, 0.25690948963165283, -0.07131117582321167, 0.4521511197090149, -0.04565781354904175, -0.42443037033081055, -0.4180068373680115, 0.31086015701293945, -0.18212342262268066, 0.25712281465530396, -0.09567481279373169, 0.13126301765441895, -0.27735668420791626, -0.27890145778656006, 0.17610734701156616, -0.3295474052429199, -0.009131848812103271, -0.2524298429489136, -0.34466391801834106, 0.1827440857887268, 0.0766439139842987, 0.34412676095962524, -0.1324128806591034, 0.44008487462997437, 0.37052589654922485, 0.4251191020011902, -0.2590896487236023, 0.012102484703063965, -0.29710668325424194, -0.22751742601394653, 0.6304305195808411, 0.23531872034072876, -0.34747493267059326, 0.45752793550491333, -0.13060206174850464, 0.4859752058982849, 0.16752398014068604, -0.08334752917289734, 0.06870698928833008, -0.006225645542144775, -0.46426841616630554, -0.4306454062461853, -0.24802187085151672, -0.37504589557647705, -0.3730049729347229, -0.2186720371246338, 0.3711290955543518, 0.23596817255020142, -0.32397472858428955, -0.7380363345146179, -0.3561837077140808, -0.39039212465286255, -0.1694585084915161, -0.44446200132369995, 0.37491902709007263, 0.21536386013031006, -0.02594912052154541, -0.2788892388343811, 0.26990807056427, -0.058688580989837646, 0.025714218616485596, -0.1352190375328064, 0.43029534816741943, 0.12268370389938354, 0.08350008726119995, -0.053051888942718506, -0.2414122223854065, -0.2048945426940918, 0.3918541669845581, 0.3836473524570465, -0.17311596870422363, 0.2710486650466919, 0.3344762325286865, -0.4687485694885254, -0.2788505554199219, 0.39702457189559937, 0.4277747869491577, -0.16818130016326904, 0.2816609740257263, -0.14140594005584717, 0.3903456926345825, 0.2717365026473999, 0.42436450719833374, 0.5314029455184937, -0.4381257891654968, -0.6570083498954773, 0.4573928117752075, 0.14371097087860107, 0.48936498165130615, 0.29307395219802856, -0.12685154378414154, -0.13961809873580933, 0.49111491441726685, 0.37764453887939453, -0.47734880447387695, 0.10361334681510925, -0.1040915846824646, 0.23639559745788574, 0.4650111794471741, -0.1262795329093933, -0.1293202042579651, -0.26821690797805786, 0.37067052721977234, 0.48924535512924194, -0.4695817828178406, 0.3733481764793396, -0.2828531861305237, -0.37752851843833923, -0.40103277564048767, 0.4301162362098694, 0.3677276372909546, 0.36785537004470825, 0.25026020407676697, 0.3744160532951355, 0.44977450370788574, 0.4722324013710022, -0.419374942779541, 0.14945757389068604, 0.4084625840187073, -0.058949947357177734, 0.1946045160293579, 0.1708897352218628]], "hidden_weights": [[-0.24695664644241333, 0.17857295274734497, 0.23268938064575195, 0.05054116249084473, 0.16289947926998138, 0.03414618968963623, -0.29650795459747314, -0.4747329354286194, 0.283968448638916, -0.40061312913894653, 0.23606044054031372, -0.3068847060203552, -0.4128938317298889, 0.25774312019348145, 0.022880852222442627, 0.1402168869972229, -0.36506104469299316, -0.369331419467926, 0.26639315485954285, 0.7961767911911011, 0.47150957584381104, 0.18195044994354248, -0.4834437370300293, 0.2709166407585144, 0.10912641137838364, 0.47224026918411255, 0.05300837755203247, 0.3976641297340393, 0.22550010681152344, 0.06738263368606567, -0.115364670753479, 0.05110788345336914, 0.06535574793815613, -0.3598449230194092, 0.15122884511947632, 0.22107279300689697, 0.2517898678779602, 0.3969165086746216, 0.0548882782459259, -0.29289180040359497, -0.41118478775024414, -0.25862494111061096, 0.10989660024642944, -0.2656174898147583, 0.024358689785003662, -0.2378934621810913, 0.06681275367736816, 0.3509758710861206, 0.3388151526451111, 0.13868367671966553, -0.23887532949447632, 0.24914586544036865, 0.33642080426216125, 0.13414716720581055, 0.39278310537338257, -0.03991711139678955, 0.010206758975982666, -0.4994876980781555, -0.6269500255584717, -0.1680682897567749, 0.35476458072662354, 0.06556546688079834, 0.22220635414123535, 0.4325326085090637], [0.01690075173974037, 0.5474902391433716, 0.2755064368247986, 0.17155510187149048, -0.2834722399711609, -0.14654004573822021, 0.33980798721313477, 0.299662709236145, 0.6525952816009521, 0.4961182475090027, 0.036617398262023926, -0.2842198610305786, 0.24583148956298828, -0.08227759599685669, -0.33324897289276123, -0.3331708610057831, -0.2909654974937439, 0.0027941465377807617, -0.21923255920410156, 0.1597307324409485, 0.095950186252594, 0.2821289300918579, 0.0028449445962905884, 0.163196861743927, 0.4617084264755249, -0.10238370299339294, -0.3717975616455078, 0.3194201588630676, 0.08626145124435425, -0.15724557638168335, -0.38155674934387207, 0.18401163816452026, -0.39410024881362915, -0.37297701835632324, -0.47192269563674927, -0.2823094129562378, -0.14356303215026855, 0.17667555809020996, 0.12038201093673706, -0.3147221803665161, -0.06635192036628723, 0.11607682704925537, 0.39144259691238403, -0.28681814670562744, -0.050161659717559814, -0.48835891485214233, -0.27991729974746704, -0.36351776123046875, -0.4259384274482727, 0.21543076634407043, -0.3716740608215332, -0.4001882076263428, 0.5789023637771606, -0.07110607624053955, 0.49371957778930664, 0.43606680631637573, 0.39811304211616516, 0.38496774435043335, 0.07993286848068237, -0.33876004815101624, -0.2835947871208191, -0.024533867835998535, 0.19911235570907593, 0.010788023471832275], [-0.4307537078857422, 0.2768927812576294, -0.3561117649078369, -0.1140373945236206, -0.37430834770202637, 0.34052330255508423, 0.14588141441345215, -0.3038910925388336, 0.5374062061309814, -0.5585823059082031, 0.020443782210350037, 0.45031750202178955, 0.0625159740447998, -0.2916758060455322, -0.2951480746269226, 0.1648046374320984, -0.7031633853912354, -0.4306377172470093, 0.3017032742500305, -0.1420627236366272, 0.07997627556324005, -0.32414209842681885, 0.008410334587097168, -0.25367534160614014, 0.19197142124176025, 0.19848358631134033, 0.4848814606666565, -0.0011346936225891113, 0.29730522632598877, -0.09054535627365112, -0.21893125772476196, -0.2626362442970276, 0.4126374125480652, -0.34383606910705566, -0.003490746021270752, -0.08640636503696442, -0.17931270599365234, -0.2957083582878113, 0.032424211502075195, -0.03693753480911255, -0.022308826446533203, 0.1512531042098999, 0.28302115201950073, 0.10711902379989624, 0.1900925636291504, 0.07220409065485, 0.013342201709747314, -0.14863711595535278, -0.2014768123626709, -0.31595587730407715, 0.33063769340515137, 0.3732239007949829, 0.3619651198387146, -0.367143452167511, -0.001665949821472168, -0.47872039675712585, -0.23374247550964355, 0.29679715633392334, -0.06171441078186035, -0.40645718574523926, -0.40092259645462036, 0.03705710172653198, -0.23383814096450806, -0.1648235321044922], [-0.3059160113334656, 0.38934504985809326, 0.41233736276626587, -0.1468164324760437, -0.05479980260133743, 0.39805924892425537, 0.12460275739431381, -0.35103386640548706, -0.4409717321395874, 0.41646629571914673, 0.07928591966629028, 0.2352856695652008, 0.29641878604888916, -0.007167711853981018, 0.49904757738113403, -0.06161832809448242, 0.05408734083175659, 0.32029056549072266, 0.013658083975315094, -0.0976114273071289, 0.14029234647750854, 0.28215986490249634, 0.4985343813896179, 0.32200461626052856, 0.07009991258382797, 0.48330625891685486, 0.27602165937423706, 0.4201168417930603, 0.07274329662322998, 0.12448351085186005, -0.42607271671295166, 0.3225005269050598, 0.4144169092178345, 0.4457736611366272, -0.7066118717193604, -0.44475650787353516, -0.04182074964046478, 0.4365019202232361, -0.02779090404510498, 0.4992331564426422, 0.07063646614551544, 0.3729848265647888, 0.019123554229736328, -0.284076452255249, 0.32427144050598145, 0.41832053661346436, -0.26158469915390015, -0.08818799257278442, -0.39507949352264404, 0.09150618314743042, -0.41829854249954224, -0.44802892208099365, 0.3269352912902832, 0.03558671474456787, 0.15150727331638336, -0.037425994873046875, -0.3473862409591675, -0.4468453526496887, -0.443553626537323, 0.4624507427215576, -0.15427106618881226, -0.05554521083831787, 0.17714837193489075, -0.3865099549293518], [0.5081406831741333, 0.558283805847168, -0.5547647476196289, -0.46041160821914673, -0.10002841055393219, -0.10948652029037476, -0.4390518069267273, -0.21681268513202667, 0.4928204417228699, -0.13369286060333252, 0.26088929176330566, -0.21488076448440552, -0.2681083679199219, 0.117686927318573, 0.24715691804885864, -0.007872521877288818, -0.15484362840652466, 0.04747467488050461, 0.2748944163322449, -0.03342926502227783, 0.31042760610580444, -0.09174424409866333, -0.2865031361579895, 0.12332689762115479, 0.248990997672081, 0.03175070881843567, 0.3637463450431824, 0.2612544298171997, -0.10710614919662476, -0.36796826124191284, 0.7084822654724121, 0.20771634578704834, -0.04799938201904297, 0.4824928641319275, -0.4166288375854492, 0.44254982471466064, -0.30127859115600586, -0.30502021312713623, 0.16870908439159393, 0.4250490069389343, 0.06622892618179321, -0.014734745025634766, 0.31983423233032227, -0.051388829946517944, -0.5417870283126831, -0.3799975514411926, 0.31275010108947754, 0.07589894533157349, 0.14990907907485962, 0.06137792766094208, 0.41097038984298706, 0.2053864598274231, -0.29270124435424805, 0.40371179580688477, 0.03340280055999756, -0.24087214469909668, -0.2491806149482727, 0.055373430252075195, -0.5662716627120972, 0.16531841456890106, 0.0348474383354187, 0.3826349675655365, 0.22680294513702393, 0.23575282096862793], [0.4615377187728882, 0.20225411653518677, 0.29783135652542114, -0.3655199408531189, 0.335143506526947, 0.3046433925628662, 0.34258800745010376, -0.22302603721618652, -0.14991790056228638, 0.25323885679244995, -0.3904840350151062, -0.06877517700195312, 0.26355457305908203, 0.2266729772090912, 0.3743733763694763, 0.3833617568016052, 0.31479400396347046, -0.2951344847679138, -0.2366817593574524, -0.20804017782211304, 0.2722492814064026, -0.5222166776657104, -0.447229266166687, -0.052652835845947266, 0.5246164798736572, -0.3494250178337097, -0.42883333563804626, -0.2580159902572632, 0.2287503480911255, 0.4138682186603546, -0.3061249256134033, -0.45148932933807373, -0.02165396884083748, 0.4873889088630676, -0.2346464991569519, 0.08476340770721436, 0.34849095344543457, 0.47648942470550537, -0.4987993836402893, 0.20989525318145752, -0.4513237774372101, 0.4707537889480591, -0.012552738189697266, -0.38855379819869995, 0.39325159788131714, 0.6612759828567505, 0.5312231183052063, -0.24203544855117798, 0.03453719615936279, 0.18755215406417847, -0.208830788731575, -0.09931313991546631, -0.3428749442100525, 0.29709792137145996, 0.11335855722427368, 0.44262051582336426, -0.3589558005332947, -0.47559505701065063, -0.36855900287628174, -0.28094297647476196, -0.4969561696052551, -0.03452718257904053, -0.12020190060138702, -0.39201778173446655], [0.3034675121307373, -0.0982673168182373, 0.36898595094680786, 0.3594881296157837, -0.20187219977378845, -0.7218570709228516, -0.17836874723434448, -0.10626715421676636, 0.20106881856918335, -0.19644224643707275, -0.2634306252002716, 0.4270285964012146, -0.12258698791265488, -0.3132641315460205, -0.18540924787521362, 0.15122222900390625, -0.07724303007125854, -0.16582715511322021, 0.22203189134597778, 0.006141483783721924, 0.31696659326553345, 0.3718146085739136, 0.19430404901504517, -0.1151009127497673, 0.27602118253707886, -0.07922963798046112, 0.18695682287216187, 0.043392300605773926, 0.1828346848487854, -0.1668272614479065, 0.32184115052223206, 0.28566110134124756, -0.48878633975982666, 0.03890380263328552, 0.09079152345657349, -0.47528335452079773, 0.03947317600250244, -0.6410409212112427, 0.53853440284729, -0.3127044439315796, -0.10389906167984009, -0.10519349575042725, 0.005645811557769775, -0.2876704931259155, -0.11520862579345703, -0.4087904691696167, -0.2711358666419983, 0.2773585915565491, -0.3737953305244446, 0.31689441204071045, -0.37185657024383545, 0.4864180088043213, -0.08577720075845718, 0.16722846031188965, -0.10212010145187378, -0.4920833706855774, 0.015979178249835968, -0.39620769023895264, -0.4293056130409241, -0.17756199836730957, -0.42028725147247314, -0.429607093334198, 0.29698798060417175, 0.15923374891281128], [-0.39836686849594116, -0.2563769817352295, -0.06547516584396362, -0.14511752128601074, -0.1732177734375, 0.4644651710987091, -0.15698567032814026, -0.07378927618265152, 0.10339677333831787, 0.2337731122970581, -0.45523694157600403, -0.13542389869689941, 0.05658724904060364, 0.25580739974975586, 0.3127782940864563, 0.5577884912490845, 0.47835463285446167, -0.3035469353199005, 0.025171875953674316, 0.5942502617835999, -0.4902469515800476, 0.3197707533836365, 0.24203145503997803, 0.15591979026794434, 0.4083942174911499, -0.16959452629089355, -0.10371565818786621, 0.2857036590576172, 0.21318906545639038, -0.08122587203979492, 0.305122971534729, 0.41372984647750854, -0.146678626537323, 0.049779295921325684, -0.09566318988800049, -0.2575099468231201, 0.3999340534210205, 0.3158239722251892, -0.0656970739364624, 0.0634605884552002, -0.039974331855773926, -0.19235718250274658, -0.07239073514938354, -0.22696322202682495, 0.19283956289291382, 0.2879296541213989, -0.1601351499557495, -0.29314756393432617, 0.46518605947494507, 0.14719022810459137, -0.2697179317474365, -0.3827701210975647, -0.29213428497314453, -0.24832916259765625, -0.2926194667816162, -0.37820911407470703, -0.37233543395996094, -0.0884510800242424, -0.2087109088897705, 0.0075806379318237305, 0.09318442642688751, 0.4405483603477478, -0.292477548122406, 0.13350382447242737], [-0.3295089602470398, 0.39191919565200806, 0.037669360637664795, 0.060895681381225586, 0.23451560735702515, -0.1509837508201599, 0.05233679711818695, 0.48028528690338135, 0.2385295033454895, 0.7599664926528931, 0.32276517152786255, 0.09011787176132202, 0.4380868673324585, 0.4530715346336365, -0.1934739351272583, 0.4504097104072571, -0.07525742053985596, -0.09774929285049438, -0.0398067831993103, -0.2524665594100952, -0.25798681378364563, 0.13048791885375977, -0.023059964179992676, 0.34366583824157715, 0.04717200994491577, 0.48619043827056885, 0.17435729503631592, 0.3067780137062073, 0.06716746091842651, 0.44095009565353394, 0.09051370620727539, -0.44442158937454224, 0.2530023455619812, -0.37229597568511963, -0.18892773985862732, -0.18688416481018066, -0.26323622465133667, -0.45930787920951843, -0.015796378254890442, 0.3168187737464905, 0.19124338030815125, 0.07999014854431152, 0.24436789751052856, 0.03387191891670227, 0.4977598786354065, 0.1683371663093567, 0.29881787300109863, -0.24164748191833496, -0.35578030347824097, -0.031412601470947266, 0.204237699508667, -0.24783629179000854, -0.361061692237854, 0.07982528209686279, -0.21513992547988892, -0.11901110410690308, -0.1694205403327942, -0.45760446786880493, -0.09078234434127808, -0.15898841619491577, -0.15671272575855255, 0.24274027347564697, -0.055589236319065094, -0.039484620094299316], [-0.09965413808822632, 0.21692109107971191, -0.05227619409561157, 0.3890079855918884, -0.08590686321258545, -0.20973527431488037, 0.06824374198913574, 0.15538612008094788, 0.34415560960769653, 0.5744318962097168, -0.2254127860069275, 0.320863276720047, -0.033068060874938965, -0.49321669340133667, -0.304701566696167, -0.6566147804260254, -0.32236146926879883, -0.36925584077835083, 0.05339771509170532, 0.08641940355300903, -0.2758883237838745, -0.16556578874588013, -0.4985731542110443, -0.11690658330917358, -0.4767652153968811, 0.031464576721191406, -0.023379743099212646, 0.42248982191085815, -0.14455175399780273, -0.3208705186843872, -0.21953749656677246, -0.1370532512664795, 0.47031646966934204, -0.2794882655143738, -0.012700974941253662, -0.28680211305618286, 0.02608460932970047, -0.49077707529067993, 0.2921728193759918, -0.035157084465026855, -0.43181970715522766, -0.21672940254211426, -0.4942314624786377, -0.12444990873336792, 0.3410608172416687, 0.3974878787994385, -0.22191885113716125, -0.4793582558631897, -0.12694767117500305, 0.21992701292037964, -0.4848254919052124, -0.32962629199028015, 0.22125190496444702, -0.20057308673858643, 0.23515421152114868, -0.08796727657318115, -0.43305593729019165, 0.20241951942443848, -0.409515380859375, -0.49213743209838867, 0.5365403890609741, -0.10092693567276001, -0.267537385225296, 0.04526710510253906], [0.0012004077434539795, -0.1426597237586975, -0.48975759744644165, 0.11049282550811768, 0.1089509129524231, -0.29152196645736694, -0.4083268642425537, -0.4480202794075012, 0.06528300046920776, 0.30269983410835266, -0.41252774000167847, 0.3467211127281189, 0.006957948207855225, 0.44306981563568115, -0.132890522480011, 0.3653520941734314, 0.09910845756530762, 0.18472623825073242, -0.4272387623786926, -0.1537555456161499, 0.40015745162963867, 0.30418747663497925, -0.347104012966156, -0.05157065391540527, 0.0005730390548706055, -0.2882721424102783, -0.036598414182662964, 0.02813364751636982, -0.006315827369689941, 0.45703452825546265, 0.08475732803344727, 0.1840696930885315, 0.19433337450027466, 0.36491480469703674, 0.2742607593536377, 0.2935624122619629, 0.4013463854789734, -0.21685177087783813, -0.24630630016326904, -0.4273250102996826, -0.45099806785583496, 0.3777163326740265, -0.37894999980926514, -0.12019328773021698, -0.20978045463562012, 0.048626601696014404, -0.13487794995307922, 0.10486306250095367, -0.4928526282310486, -0.07662379741668701, 0.31802529096603394, -0.3925454616546631, -0.30592775344848633, -0.11790909618139267, 0.015249192714691162, 0.13489657640457153, 0.29875755310058594, 0.037096381187438965, 0.30366361141204834, -0.2714335322380066, -0.7934420704841614, 0.45191121101379395, 0.4930347800254822, -0.3647841811180115], [0.17158472537994385, -0.07012253999710083, -0.028354763984680176, -0.039642930030822754, -0.22979778051376343, -0.04775744676589966, -0.14235848188400269, -0.06814181804656982, -0.08683349192142487, -0.27033960819244385, 0.402163565158844, 0.36022865772247314, 0.25961917638778687, 0.07580428570508957, 0.42747020721435547, -0.12794744968414307, 0.17807087302207947, -0.8422598838806152, 0.2851642966270447, -0.40285271406173706, -0.41178977489471436, -0.3991280198097229, -0.427638977766037, -0.04237186908721924, 0.12250077724456787, 0.38949668407440186, 0.43879759311676025, -0.06295818090438843, -0.08858460187911987, 0.3577749729156494, 0.4959444999694824, -0.02296929806470871, 0.23602885007858276, -0.4007986783981323, 0.12336496263742447, -0.1180279329419136, -0.39994174242019653, -0.40133488178253174, -0.17895132303237915, -0.4269029498100281, 0.47313565015792847, -0.017023012042045593, 0.31104713678359985, 0.08978432416915894, 0.2265857458114624, 0.36032700538635254, 0.5039807558059692, 0.4614962935447693, 0.37400299310684204, -0.030283905565738678, -0.1693466305732727, 0.5490332841873169, -0.31212544441223145, 0.07052671909332275, 0.3674449920654297, 0.10066872835159302, 0.09997160732746124, 0.030550360679626465, -0.2647019326686859, -0.07850915193557739, 0.23020809888839722, 0.18356311321258545, 0.26145464181900024, 0.33962488174438477], [0.3795006275177002, -0.23462313413619995, -0.406594455242157, 0.6829230785369873, -0.4896649718284607, -0.22427970170974731, 0.45481234788894653, 0.4398386478424072, 0.48514825105667114, 0.030201375484466553, 0.43159204721450806, 0.006992340087890625, -0.034630272537469864, 0.44616881012916565, 0.33755290508270264, 0.0383145809173584, -0.3751620054244995, 0.46777090430259705, 0.15163755416870117, -0.3941640257835388, -0.43610745668411255, 0.05078941583633423, 0.07799846678972244, -0.170316681265831, 0.25332796573638916, 0.14269804954528809, 0.004039645195007324, -0.0089036226272583, -0.11635380983352661, -0.47779005765914917, 0.47260797023773193, 0.36229074001312256, -0.15901529788970947, -0.2878990173339844, 0.09781235456466675, 0.05310666561126709, 0.08978599309921265, 0.4105655550956726, -0.45642518997192383, 0.3173102140426636, -0.26073703169822693, 0.2475605010986328, -0.47534847259521484, 0.39671754837036133, 0.19209721684455872, 0.1379489302635193, 0.01515340805053711, -0.44206494092941284, 0.12906205654144287, 0.23875343799591064, -0.17406851053237915, 0.17540208995342255, -0.3853863477706909, 0.08361297845840454, 0.21232861280441284, -0.6138542890548706, -0.13816452026367188, -0.01816093921661377, -0.492658793926239, -0.039192795753479004, 0.34492725133895874, 0.42668429017066956, 0.5520901679992676, 0.19418901205062866], [-0.4511430263519287, -0.4761101007461548, 0.19593274593353271, 0.4769607186317444, 0.48384442925453186, -0.24953687191009521, 0.24939662218093872, -0.07362419366836548, 0.3883211612701416, -0.29662007093429565, -0.2028687596321106, 0.21754509210586548, 0.29771772027015686, 0.14952440559864044, 0.2995253801345825, 0.031103014945983887, 0.188093364238739, -0.24640566110610962, 0.3523031771183014, -0.258931040763855, -0.05811798572540283, -0.07674612104892731, -0.4732581377029419, 0.29267454147338867, -0.270383358001709, 0.11511975526809692, 0.24489641189575195, -0.018734745681285858, -0.16030094027519226, -0.24757063388824463, 0.11411154270172119, 0.3725477457046509, 0.38456737995147705, -0.28363072872161865, 0.011861681938171387, 0.05271614342927933, 0.0735282301902771, -0.38733571767807007, -0.3539566993713379, -0.42737293243408203, -0.44419562816619873, -0.025308266282081604, 0.16902847588062286, 0.01567322015762329, 0.018356025218963623, 0.4448447823524475, 0.5418346524238586, -0.3294031023979187, -0.09051422029733658, 0.045528993010520935, 0.28100842237472534, 0.48618608713150024, -0.4321035146713257, -0.37385982275009155, -0.1684131622314453, -0.27665114402770996, -0.1292056441307068, 0.42475318908691406, -0.35628265142440796, 0.21590614318847656, -0.34217923879623413, 0.25400567054748535, 0.4499971866607666, 0.21820512413978577], [0.17814302444458008, 0.16684484481811523, 0.4047912359237671, 0.3532269597053528, 0.45107710361480713, -0.14252090454101562, -0.4624534845352173, -0.7993841171264648, -0.07847338914871216, -0.31204700469970703, 0.4449494481086731, 0.4511878490447998, 0.41511982679367065, -0.3821451961994171, -0.7172071933746338, 0.0006707906723022461, 0.3046221137046814, -0.4168962240219116, -0.5827192664146423, -0.22034022212028503, -0.16366344690322876, 0.7201570272445679, -0.5280532836914062, 0.2774761915206909, 0.08260935544967651, 0.43052351474761963, 0.21833914518356323, 0.0974402129650116, 0.3500957489013672, 0.09991234540939331, -0.14558649063110352, 0.31430381536483765, 0.0844605565071106, -0.042035557329654694, 0.4503164291381836, -0.4770416021347046, 0.21913641691207886, 0.257526695728302, 0.4593164920806885, -0.1931808590888977, 0.4217323064804077, -0.3502829670906067, -0.08063064515590668, 0.3556211590766907, -0.46395343542099, 0.08370697498321533, 0.34052109718322754, 0.2765861749649048, 0.43442559242248535, -0.04857097566127777, -0.1800692081451416, 0.36424243450164795, -0.41016334295272827, 0.23389893770217896, -0.23055994510650635, -0.29470980167388916, 0.3882424831390381, 0.4690386652946472, 0.23519521951675415, 0.366338312625885, -0.15854597091674805, -0.128037229180336, 0.37540531158447266, 0.4989659786224365], [-0.3127310276031494, 0.01152127981185913, 0.16433966159820557, -0.17580196261405945, 0.3906416893005371, -0.3108028769493103, 0.3537730574607849, -0.11970165371894836, -0.20519572496414185, 0.30970990657806396, 0.10267698764801025, 0.011649787425994873, -0.08808708190917969, 0.2557346820831299, -0.15383899211883545, 0.48443159461021423, 0.3598018288612366, 0.0628146231174469, -0.08896040916442871, 0.336234450340271, -0.3429126739501953, 0.25482577085494995, 0.15562957525253296, 0.05727282166481018, 0.4976639151573181, 0.35918545722961426, 0.23323798179626465, 0.47088557481765747, 0.05758082866668701, 0.08897453546524048, -0.2732985317707062, 0.4164294898509979, 0.03957730531692505, 0.1906779408454895, 0.035323262214660645, 0.16068103909492493, -0.01347130537033081, 0.04313518851995468, -0.39541709423065186, -0.6024206876754761, 0.04030485451221466, -0.2215489149093628, -0.24799346923828125, 0.15817290544509888, 0.2916039228439331, -0.25403037667274475, 0.10470734536647797, 0.15362463891506195, 0.3386436104774475, 0.6325042247772217, -0.32467812299728394, -0.08937706053256989, 0.09770739078521729, -0.3149716258049011, -0.3808487057685852, -0.3968924880027771, -0.1913745403289795, -0.06011021137237549, 0.30380839109420776, 0.1792830228805542, 0.049538493156433105, -0.4645695686340332, 0.22074121236801147, -0.1705322563648224], [-0.002080768346786499, -0.026610851287841797, 0.21795529127120972, -0.727744460105896, 0.3613218665122986, 0.09264639019966125, -0.39984995126724243, -0.05179440975189209, 0.16910135746002197, 0.25806838274002075, 0.1859135925769806, 0.1671823263168335, -0.34399253129959106, 0.2770993113517761, -0.3214663863182068, -0.49102330207824707, -0.3995674252510071, -0.03812450170516968, 0.09526341408491135, -0.10768681764602661, -0.20356053113937378, 0.3114319443702698, 0.2731361985206604, 0.014766896143555641, 0.32950359582901, 0.32585591077804565, -0.23480504751205444, 0.22312921285629272, -0.15006285905838013, -0.4028039574623108, -0.2728985548019409, -0.2217848300933838, 0.42780035734176636, -0.5347841382026672, -0.3187735080718994, 0.44793176651000977, -0.15374016761779785, 0.23408997058868408, -0.2992511987686157, 0.3646339178085327, 0.18289905786514282, 0.25655049085617065, -0.03282427787780762, 0.13531208038330078, -0.2060881406068802, -0.22633898258209229, 0.481600284576416, 0.08709925413131714, -0.18462979793548584, 0.25151532888412476, 0.41645264625549316, 0.2141118049621582, -0.03702282905578613, 0.21787911653518677, 0.4125198721885681, 0.6556119322776794, 0.39430153369903564, -0.3440820574760437, 0.2011270523071289, -0.27291154861450195, -0.005024600774049759, 0.30226609110832214, -0.0037975385785102844, 0.12745791673660278], [-0.00542806088924408, -0.49242204427719116, 0.46446794271469116, -0.16756826639175415, 0.2489984631538391, -0.22561776638031006, 0.04797953739762306, 0.31191104650497437, -0.20406699180603027, 0.0005738735198974609, -0.40789884328842163, -0.07487291097640991, -0.0821804404258728, 0.43025094270706177, 0.25829803943634033, -0.19925063848495483, -0.41635018587112427, 0.49723005294799805, 0.38477909564971924, 0.026425302028656006, 0.4918055534362793, 0.3211439847946167, 0.22179323434829712, -0.2723693251609802, -0.4774032235145569, 0.1585424542427063, -0.25291556119918823, -0.40862202644348145, -0.46178579330444336, -0.160057932138443, -0.47553551197052, -0.06967425346374512, -0.12056313455104828, 0.08738851547241211, 0.4998226761817932, -0.3426728844642639, -0.34008538722991943, 0.498237669467926, -0.18085359036922455, 0.2928127646446228, 0.1508629322052002, 0.2981630563735962, -0.3463696241378784, 0.6149702668190002, -0.35750478506088257, -0.48437750339508057, 0.5444985032081604, 0.22803473472595215, -0.15527670085430145, 0.27335211634635925, -0.17838603258132935, -0.4865248501300812, -0.2778877019882202, -0.2874033451080322, -0.16437268257141113, 0.01171642541885376, -0.38511407375335693, -0.1459496021270752, 0.4343836307525635, 0.23015427589416504, 0.31330758333206177, 0.3990524411201477, -0.025320827960968018, 0.35176679491996765], [0.4365096688270569, 0.4119037389755249, 0.25597792863845825, 0.04314941167831421, 0.16412407159805298, 0.6266142129898071, -0.0143890380859375, -0.3127579092979431, 0.6193351745605469, 0.23419934511184692, 0.10861140489578247, -0.22663861513137817, 0.33222073316574097, 0.3327574133872986, 0.5182195901870728, 0.37885844707489014, 0.28000545501708984, 0.35118865966796875, 0.3898770809173584, -0.4421207308769226, -0.09736883640289307, 0.051840901374816895, 0.2308349609375, 0.46082162857055664, 0.4444964528083801, 0.16404950618743896, -0.47534358501434326, -0.179479718208313, -0.00482100248336792, -0.4254841208457947, -0.1486566662788391, 0.2584764361381531, -0.2305627167224884, 0.1482090950012207, 0.10099771618843079, -0.5832479596138, -0.29020124673843384, -0.023771770298480988, 0.24798783659934998, -0.3539171814918518, 0.32575803995132446, 0.10340243577957153, -0.13069725036621094, -0.4978484511375427, -0.23644065856933594, -0.2874736189842224, 0.30364441871643066, -0.20863574743270874, 0.3197145462036133, 0.0726737380027771, 0.5527933239936829, 0.38703978061676025, -0.21111303567886353, 0.15509121119976044, -0.30057477951049805, -0.4212876558303833, 0.1984667330980301, -0.5115426778793335, -0.42622506618499756, -0.46933019161224365, 0.37571120262145996, 0.39627283811569214, 0.4623355269432068, 0.3365641236305237], [0.4462307095527649, 0.3432675004005432, 0.3282916843891144, 0.06193220615386963, -0.025487899780273438, 0.30133935809135437, -0.09184050559997559, -0.27684885263442993, -0.3499162793159485, -0.020395219326019287, -0.026349663734436035, -0.921799898147583, -0.4895177483558655, 0.41899940371513367, -0.08151858299970627, -0.11674506962299347, 0.4543997645378113, 0.21696066856384277, 0.2762513756752014, -0.5848326086997986, -0.4733981490135193, 0.08011198043823242, 0.2521851658821106, 0.2416001707315445, -0.09666621685028076, 0.2398412823677063, 0.06146271526813507, 0.3285999298095703, 0.39235150814056396, -0.11291635036468506, -0.04735894873738289, -0.21737021207809448, 0.47604817152023315, 0.34621554613113403, -0.36869627237319946, 0.10763788223266602, -0.19260060787200928, -0.45104843378067017, 0.1874813437461853, -0.1195882111787796, -0.3907250165939331, 0.06219172477722168, 0.48314452171325684, -0.34055638313293457, 0.017359435558319092, 0.18410724401474, -0.06575053930282593, -0.44899868965148926, 0.3328098654747009, 0.207086443901062, 0.2183079719543457, 0.03212916851043701, -0.07674074172973633, 0.22577637434005737, -0.22755825519561768, -0.10533976554870605, -0.3031536340713501, 0.2954275906085968, -0.08730059862136841, 0.4513320326805115, 0.24782195687294006, 0.3145092725753784, -0.0926283597946167, -0.1804165244102478], [-0.31770551204681396, 0.3186835050582886, 0.47718650102615356, -0.2534114420413971, 0.3683850169181824, 0.08737987279891968, 0.2894827425479889, -0.12090188264846802, -0.47175413370132446, -0.02647954225540161, -0.08606165647506714, -0.43151748180389404, -0.10677826404571533, -0.47556984424591064, -0.16827577352523804, 0.057972490787506104, 0.012302398681640625, -0.4364227056503296, -0.2431541532278061, -0.4220399856567383, -0.17482846975326538, 0.22923970222473145, 0.23457592725753784, -0.3020091652870178, 0.14482760429382324, 0.30413222312927246, -0.2110690027475357, -0.010082602500915527, 0.3914632797241211, -0.3193880319595337, 0.3391035795211792, -0.09607819467782974, 0.14742639660835266, -0.12934625148773193, 0.19536906480789185, -0.28697270154953003, 0.19867432117462158, -0.11703842878341675, 0.18336045742034912, -0.4336555600166321, -0.28622061014175415, -0.47927623987197876, 0.14306163787841797, -0.5901675820350647, 0.45429110527038574, -0.13997697830200195, 0.01461869478225708, -0.45677322149276733, 0.38017237186431885, 0.5752850770950317, 0.04580521583557129, -0.3770638108253479, -0.32818472385406494, 0.23166924715042114, -0.366899311542511, -0.32087939977645874, 0.4248730540275574, 0.39157360792160034, 0.02654433250427246, -0.33741527795791626, 0.22111761569976807, 0.4470241665840149, 0.02596379444003105, 0.1189349889755249], [0.31713104248046875, -0.18742895126342773, -0.41572272777557373, 0.08406012505292892, 0.2592598497867584, 0.32522881031036377, 0.4660940170288086, 0.41486307978630066, 0.411582887172699, 0.029911816120147705, -0.39555102586746216, 0.06945425271987915, -0.008265554904937744, 0.08850979804992676, 0.14022225141525269, -0.3726649880409241, 0.14807571470737457, -0.30044054985046387, 0.4484221339225769, 0.1699819266796112, -0.1446407437324524, -0.4110901355743408, 0.37487369775772095, 0.293750524520874, -0.4502735733985901, 0.45407232642173767, 0.1297878623008728, -0.1603754758834839, -0.08929228782653809, 0.34951430559158325, 0.17310291528701782, 0.29872071743011475, -0.0983349084854126, -0.021712958812713623, 0.44317418336868286, 0.41592317819595337, -0.04299360513687134, 0.17720460891723633, 0.029650576412677765, 0.332651823759079, -0.4093327522277832, 0.09976768493652344, -0.16316573321819305, -0.36436736583709717, 0.3227084279060364, 0.08311748504638672, 0.14526093006134033, -0.25676214694976807, 0.3348751664161682, 0.4468933343887329, -0.3909474313259125, -0.2729491591453552, 0.3864663243293762, 0.08928042650222778, 0.31500279903411865, 0.4260004162788391, -0.48755478858947754, -0.21934089064598083, -0.2688899338245392, -0.4369337260723114, -0.21358704566955566, 0.006201334297657013, 0.29697221517562866, 0.02191358432173729], [-0.040658771991729736, 0.29749828577041626, 0.2794223129749298, -0.15365225076675415, -0.2341548204421997, -0.25720322132110596, -0.16717422008514404, 0.1894581913948059, -0.1777021884918213, -0.10044980049133301, -0.45261406898498535, -0.43147438764572144, 0.17344611883163452, 0.46449410915374756, -0.15953488647937775, 0.03767825663089752, -0.5543298721313477, 0.0877072811126709, -0.4790053367614746, 0.4500441551208496, 0.24826383590698242, 0.0026667118072509766, -0.25625431537628174, -0.34911584854125977, 0.7564162611961365, -0.42406362295150757, -0.0628238320350647, -0.047293245792388916, 0.18598955869674683, 0.48142480850219727, -0.18800145387649536, 0.3754650354385376, -0.008862793445587158, -0.18875056505203247, -0.09245973825454712, -0.04851871728897095, 0.5093802213668823, -0.3552365303039551, -0.46957290172576904, 0.21851640939712524, -0.21734219789505005, -0.14715105295181274, -0.233079195022583, 0.39001429080963135, -0.11274492740631104, 0.31287312507629395, 0.21303172409534454, 0.17042681574821472, 0.03933537006378174, -0.15339159965515137, -0.010892391204833984, -0.34103304147720337, -0.11731195449829102, 0.07526177167892456, -0.22002959251403809, 0.1080847829580307, 0.24830204248428345, -0.403720498085022, -0.14477252960205078, 0.24810373783111572, -0.16269850730895996, 0.13986676931381226, 0.4414018392562866, 0.25329405069351196], [0.006856203079223633, 0.4768409729003906, -0.18509279191493988, -0.47793975472450256, -0.3335256576538086, -0.03422659635543823, 0.15227369964122772, 0.37209582328796387, 0.11389648914337158, 0.5562707781791687, -0.22147950530052185, 0.40344423055648804, -0.07209527492523193, 0.1290617287158966, 0.07092294096946716, -0.013713717460632324, 0.2881835103034973, 0.32003647089004517, -0.017500147223472595, -0.1341971755027771, -0.42621076107025146, -0.08923226594924927, -0.49436867237091064, -0.07313919067382812, -0.3643435835838318, -0.19422858953475952, 0.23002326488494873, -0.03343620151281357, 0.08821332454681396, -0.09488534927368164, -0.4013310670852661, 0.09098458290100098, 0.3202395439147949, 0.2110753208398819, 0.40302032232284546, 0.30265170335769653, 0.28030985593795776, 0.2549753487110138, -0.10294073820114136, -0.2989954948425293, -0.28891080617904663, -0.1574518084526062, 0.3190193772315979, -0.2315582036972046, 0.4532172977924347, 0.2252519130706787, -0.058052822947502136, 0.405417799949646, -0.4970903992652893, -0.4933915138244629, -0.6783716678619385, 0.33201077580451965, 0.42209500074386597, 0.24414406716823578, -0.43328559398651123, -0.12023651599884033, 0.03215116262435913, 0.4854193925857544, 0.4262528419494629, 0.36030828952789307, 0.12814271450042725, -0.38397416472435, 0.0607377290725708, -0.40536224842071533], [-0.11151373386383057, 0.47138547897338867, -0.3733452558517456, 0.006912946701049805, 0.2856099009513855, 0.4899306893348694, 0.00013597292127087712, 0.26225966215133667, 0.18297427892684937, -0.3441561460494995, -0.1444149613380432, -0.2610079050064087, 0.4156554341316223, -0.15390539169311523, -0.25599390268325806, 0.14590667188167572, -0.45530086755752563, 0.3079100251197815, 0.3670416474342346, 0.18312126398086548, 0.027218639850616455, -0.003303229808807373, 0.1766653060913086, -0.17544329166412354, 0.4968564808368683, -0.46560221910476685, 0.1342753767967224, -0.383760929107666, -0.14112287759780884, 0.46333926916122437, -0.2845327854156494, -0.31975823640823364, -0.2763432562351227, -0.3165934085845947, -0.2895139455795288, 0.3616713881492615, 0.2505810260772705, 0.239704430103302, -0.6393833160400391, 0.31889253854751587, 0.02653127908706665, -0.05445683002471924, 0.10420449078083038, 0.302727609872818, 0.41916710138320923, -0.19124585390090942, -0.48613280057907104, 0.29793602228164673, 0.05824500322341919, 0.36295419931411743, 0.5184626579284668, -0.14110404253005981, 0.014605224132537842, -0.46703481674194336, -0.2507563829421997, -0.04953259229660034, -0.3941017985343933, -0.2737795114517212, 0.1439892053604126, -0.4573901295661926, 0.22630828619003296, -0.12840023636817932, -0.028858959674835205, -0.22817200422286987], [-0.38461369276046753, -0.24037623405456543, 0.12117592990398407, 0.11424660682678223, 0.3556726574897766, 0.46909576654434204, 0.40683090686798096, 0.11470881849527359, -0.32451051473617554, 0.15357697010040283, -0.2815627455711365, 0.11270558834075928, 0.27006101608276367, 0.2468198537826538, -0.10752564668655396, 0.47943687438964844, -0.29417160153388977, 0.4694368839263916, -0.15871620178222656, 0.053804993629455566, -0.14148253202438354, -0.3120419979095459, 0.32811856269836426, 0.44579780101776123, 0.30993854999542236, -0.23646336793899536, 0.40448957681655884, -0.07182539999485016, -0.40805602073669434, 0.2407066375017166, 0.31264257431030273, 0.3446750044822693, -0.45086151361465454, -0.4494885802268982, 0.47962045669555664, -0.42276114225387573, -0.3912656307220459, 0.1354007124900818, 0.18461894989013672, 0.22938263416290283, -0.001913558691740036, -0.3667250871658325, -0.0994146466255188, 0.22689014673233032, -0.4648187756538391, 0.49023401737213135, -0.28515249490737915, -0.20738112926483154, -0.7019432783126831, -0.034350693225860596, 0.20660990476608276, 0.4902503490447998, -0.2535998821258545, 0.03874772787094116, 0.0017072409391403198, 0.4012148976325989, -0.20982937514781952, -0.22066843509674072, 0.6704922318458557, -0.39332008361816406, -0.3779764771461487, -0.38260358572006226, 0.41226428747177124, 0.07815498113632202], [-0.27329355478286743, -0.3705397844314575, 0.2585773468017578, 0.3761386275291443, 0.24411247670650482, -0.4429713487625122, 0.2479461431503296, -0.3919028639793396, 0.03174220025539398, -0.4223519563674927, 0.34048300981521606, -0.1341104507446289, 0.3418014645576477, -0.09976327419281006, 0.34701788425445557, 0.06385272741317749, 0.014497637748718262, 0.4682646691799164, 0.26919853687286377, 0.3552568554878235, 0.0922231674194336, -0.3048000931739807, 0.0185195654630661, 0.23695547878742218, -0.6457523703575134, -0.34079253673553467, 0.004368588328361511, -0.14618727564811707, 0.01213616132736206, 0.21663355827331543, -0.472853422164917, 0.38918185234069824, 0.3318938612937927, -0.37232479453086853, 0.03606608882546425, 0.4442030191421509, 0.47144532203674316, -0.42925959825515747, 0.16709643602371216, -0.13225919008255005, 0.23341792821884155, -0.254477322101593, 0.013288319110870361, -0.04773792624473572, 0.48291468620300293, 0.26571571826934814, -0.41518473625183105, 0.4911758303642273, 0.11154493689537048, 0.1307062953710556, -0.026037827134132385, 0.05367235839366913, -0.6073708534240723, -0.3793486952781677, 0.05110734701156616, -0.023166000843048096, -0.4844895601272583, 0.3106057643890381, 0.22251462936401367, 0.024600625038146973, -0.18015789985656738, -0.22538155317306519, 0.20932388305664062, 0.2854381799697876], [-0.11247479915618896, 0.19642694294452667, -0.49516069889068604, 0.38356125354766846, 0.489801824092865, -0.12154041975736618, -0.01755577325820923, -0.36849403381347656, -0.09076398611068726, -0.14213991165161133, -0.2086678147315979, -0.17739593982696533, -0.39422184228897095, 0.08722823858261108, 0.24649298191070557, -0.17191791534423828, -0.12367838621139526, 0.02192133665084839, -0.12058544158935547, 0.1871984601020813, 0.16875344514846802, -0.34613174200057983, -0.3662911057472229, 0.27984127402305603, 0.3909006714820862, -0.36040616035461426, 0.36637818813323975, 0.022816002368927002, -0.13853608071804047, 0.22611872851848602, 0.28270089626312256, 0.045388877391815186, 0.2744710445404053, 0.4617267847061157, 0.15053951740264893, 0.43850278854370117, -0.1854531168937683, 0.09582605212926865, -0.06782466173171997, 0.016537964344024658, 0.01605093479156494, 0.16709530353546143, 0.14906221628189087, 0.40429285168647766, 0.06497545540332794, -0.48977017402648926, -0.11926591396331787, 0.387240469455719, 0.11306846141815186, 0.1179724931716919, 0.4530174136161804, -0.4359085261821747, 0.3607119917869568, 0.1976425051689148, 0.24620270729064941, 0.40597081184387207, 0.4006534218788147, -0.3540552854537964, 0.00027257204055786133, -0.46483081579208374, -0.47033023834228516, 0.11626744270324707, 0.0449184775352478, -0.2752971053123474], [0.26110219955444336, -0.42070114612579346, 0.4495713710784912, -0.47628331184387207, -0.24345171451568604, -0.2203121781349182, -0.3703998923301697, -0.1497499942779541, 0.3673226237297058, 0.42135679721832275, -0.4659460783004761, -0.4204712212085724, 0.338104784488678, 0.7738864421844482, 0.1399516612291336, -0.4606974124908447, -0.40551477670669556, 0.24291405081748962, 0.06049966812133789, -0.4071918725967407, 0.4089718461036682, 0.4195888042449951, 0.2181621789932251, 0.253537654876709, -0.08782511949539185, 0.0743645653128624, -0.0982632040977478, 0.11953520774841309, 0.11042404174804688, 0.48828208446502686, 0.23537792265415192, 0.38297194242477417, -0.4652708172798157, -0.3884883522987366, -0.4155431389808655, 0.09558498859405518, 0.22087031602859497, 0.3601706624031067, -0.21325039863586426, 0.1938316822052002, 0.2374887615442276, -0.41735291481018066, 0.6520605087280273, -0.3095269203186035, -0.19008789956569672, -0.4588887095451355, 0.4880664348602295, 0.1449618935585022, -0.5665650367736816, 0.22693759202957153, 0.010338008403778076, -0.10582685470581055, 0.2662821114063263, -0.17653167247772217, 0.012063562870025635, 0.019640326499938965, 0.310782253742218, 0.4732401967048645, -0.18539786338806152, 0.3495117425918579, 0.47032004594802856, -0.3533846139907837, 0.4566847085952759, -0.17251433432102203], [-0.1784558892250061, -0.13808393478393555, 0.3334199786186218, 0.16527026891708374, -0.07640945911407471, 0.002110123634338379, 0.0415702760219574, -0.3917468786239624, 0.14655941724777222, -0.346426784992218, 0.1522320657968521, 0.18305078148841858, -0.0944744348526001, -0.47775399684906006, -0.1930474042892456, 0.4661664366722107, -0.7334465384483337, -0.12390338629484177, 0.48286914825439453, -0.008484691381454468, 0.28840869665145874, -0.13688190281391144, -0.046658433973789215, -0.1585444211959839, -0.2052701711654663, -0.5538891553878784, 0.20660161972045898, 0.44952884316444397, -0.3308566212654114, 0.23986732959747314, -0.011870503425598145, -0.4627273678779602, 0.516002357006073, -0.619924008846283, -0.16685527563095093, -0.2931143641471863, 0.2379748821258545, -0.061849772930145264, 0.3851414918899536, -0.30424943566322327, 0.4787282943725586, -0.22996723651885986, -0.37338554859161377, -0.03379857540130615, -0.34295088052749634, 0.41817229986190796, 0.32105711102485657, 0.39871418476104736, 0.4733009934425354, 0.2894226908683777, -0.41683852672576904, -0.2643299102783203, -0.06987547874450684, -0.4259033799171448, 0.0891839861869812, 0.04485207796096802, 0.05289243161678314, -0.08831615746021271, 0.04252469912171364, 0.28426235914230347, -0.12207180261611938, -0.2554219365119934, 0.10278201103210449, 0.5639668703079224], [0.1749739646911621, -0.05254232883453369, 0.47140079736709595, 0.32373300194740295, 0.48460376262664795, -0.13400137424468994, -0.5714086890220642, 0.22644728422164917, -0.4675949215888977, -0.06065458059310913, 0.12949270009994507, -0.3195183277130127, -0.3310040831565857, 0.03261721134185791, -0.4700847864151001, -0.11769825220108032, 0.19578135013580322, 0.40026628971099854, 0.4617793560028076, -0.39510077238082886, -0.2886529266834259, 0.24429824948310852, 0.11369812488555908, -0.2315371334552765, 0.4163459539413452, 0.3256113529205322, 0.14915138483047485, -0.040744125843048096, 0.32113587856292725, -0.07169044017791748, 0.15654033422470093, -0.09776061773300171, 0.08700203895568848, 0.2590484619140625, -0.47529932856559753, 0.24211940169334412, -0.3292657136917114, 0.28848981857299805, 0.2981263995170593, -0.42719531059265137, 0.33282771706581116, 0.14835917949676514, -0.1958383321762085, -0.48140907287597656, -0.5626893043518066, 0.2942284345626831, -0.11917141079902649, 0.4110703468322754, 0.0016897916793823242, -0.07838153839111328, -0.10118333995342255, 0.25814878940582275, 0.13993871212005615, 0.359701007604599, 0.48828625679016113, 0.4538462162017822, -0.3344469368457794, 0.006430149078369141, -0.32021093368530273, 0.3639846444129944, -0.27382582426071167, 0.278195321559906, -0.2138981819152832, 0.05188244581222534], [-0.21600991487503052, 0.25729596614837646, -0.10810494422912598, -0.24088674783706665, -0.4871917963027954, 0.18654334545135498, -0.5156471729278564, 0.11052656173706055, 0.39565718173980713, -0.028723716735839844, 0.28965359926223755, 0.4763026237487793, 0.21550476551055908, -0.7831124067306519, -0.46890050172805786, -0.7037771940231323, -0.3761102557182312, -0.0673208236694336, 0.04973691701889038, 0.40191560983657837, 0.08157944679260254, 0.23133540153503418, 0.43002521991729736, -0.1754685640335083, -0.4878305196762085, 0.07194966077804565, -0.3952995538711548, 0.23166757822036743, 0.4090328812599182, 0.1371803879737854, -0.21096032857894897, 0.2899823784828186, 0.13309675455093384, -0.21272027492523193, 0.17271631956100464, 0.3952513337135315, 0.22251731157302856, -0.3102816641330719, -0.42006027698516846, -0.33072584867477417, -0.01655632257461548, -0.42535412311553955, 0.34463566541671753, -0.4971731901168823, 0.023184895515441895, 0.6090608239173889, 0.13087418675422668, -0.30854517221450806, 0.04338479042053223, 0.3763962984085083, -0.14939571917057037, -0.06459349393844604, -0.3945583701133728, 0.5627090930938721, -0.0368032231926918, 0.47677046060562134, -0.18197126686573029, 0.43210333585739136, -0.052938222885131836, -0.16418832540512085, 0.21611744165420532, 0.3851088285446167, -0.3230275511741638, 0.2792258858680725], [0.22957861423492432, 0.20648342370986938, -0.5103175044059753, 0.0624237060546875, 0.33229607343673706, -0.12876194715499878, 0.022775590419769287, 0.07250720262527466, -0.007801353931427002, -0.3402346968650818, -0.1785539984703064, 0.08043978363275528, -0.46218687295913696, 0.4554385542869568, -0.34267860651016235, 0.06875258684158325, 0.07803931832313538, -0.1166682243347168, -0.16210120916366577, 0.2361728996038437, -0.33153724670410156, -0.09594041109085083, -0.490821897983551, -0.13153910636901855, -0.2772468328475952, 0.2251434326171875, 0.05806952714920044, -0.23461294174194336, -0.26222074031829834, -0.4915963411331177, -0.7523393630981445, -0.29240095615386963, 0.35056543350219727, 0.09119850397109985, 0.1547117829322815, -0.03419548273086548, -0.17920184135437012, 0.46703749895095825, -0.17898684740066528, 0.2255793809890747, 0.22990824282169342, -0.2858096957206726, -0.4016174077987671, -0.27745509147644043, -0.44405919313430786, 0.46820464730262756, -0.1319940686225891, -0.34356027841567993, -0.38317179679870605, -0.39669644832611084, 0.31189388036727905, 0.48773372173309326, 0.31528031826019287, -0.21178317070007324, 0.00205075740814209, 0.2102314829826355, 0.18032753467559814, 0.20471137762069702, 0.3137584328651428, -0.39030468463897705, 0.2690253257751465, 0.2442861944437027, -0.4178007245063782, -0.4348393678665161], [0.2926064133644104, -0.38697779178619385, -0.2168879508972168, 0.07896198332309723, 0.10308289527893066, -0.2622188925743103, -0.08719408512115479, -0.30751368403434753, -0.4945080280303955, -0.26465916633605957, 0.20617756247520447, 0.15650223195552826, -0.11998188495635986, -0.30944597721099854, -0.6804163455963135, 0.40542298555374146, 0.12699931859970093, 0.4696130156517029, -0.23671609163284302, 0.40492573380470276, 0.20667976140975952, -0.42371058464050293, -0.48371630907058716, -0.4649733901023865, -0.2932446599006653, -0.0782584398984909, 0.41857433319091797, 0.3624938130378723, -0.18893879652023315, -0.34997057914733887, -0.14705419540405273, 0.23516929149627686, 0.16915881633758545, 0.46809226274490356, -0.2800145745277405, -0.411030113697052, -0.0039525106549263, 0.06084132194519043, -0.15000097453594208, -0.08627770841121674, 0.1836342215538025, 0.022186636924743652, 0.47135812044143677, 0.22162967920303345, -0.07358402013778687, -0.3506508469581604, 0.42662984132766724, 0.400343656539917, 0.2138165831565857, -0.07811689376831055, -0.3668822646141052, -0.2792810797691345, -0.19468837976455688, -0.36165851354599, -0.43465447425842285, -0.4195186495780945, -0.6593234539031982, -0.2922503352165222, 0.26792657375335693, 0.0540735125541687, -0.6585873961448669, -0.42470622062683105, -0.3575195074081421, -0.16991585493087769], [-0.20418107509613037, -0.2623979449272156, -0.048063457012176514, 0.3373757600784302, 0.13809943199157715, 0.13611507415771484, -0.3058938980102539, -0.4244673252105713, -0.16529303789138794, -0.0964348167181015, 0.28843963146209717, -0.03656750172376633, 0.20947711169719696, -0.6231417059898376, 0.3470919728279114, -0.18964171409606934, 0.11927586793899536, 0.48412787914276123, 0.2143431007862091, -0.35585397481918335, 0.390506386756897, -0.3387681245803833, 0.023819923400878906, -0.03384530544281006, 0.4965844750404358, -0.4308018088340759, 0.48262256383895874, 0.35857677459716797, 0.19157564640045166, 0.1825627088546753, 0.3657095432281494, -0.06686589121818542, -0.2034853845834732, 0.09466409683227539, 0.0065277814865112305, 0.4618071913719177, -0.414615273475647, -0.1798800826072693, -0.14928387105464935, 0.2650786340236664, -0.3169315457344055, 0.08000046014785767, 0.06451117992401123, 0.47355058789253235, -0.37236350774765015, 0.3539623022079468, -0.1412075161933899, -0.1773359775543213, 0.014214158058166504, 0.3035980463027954, -0.37614089250564575, -0.39795011281967163, 0.19027549028396606, -0.3218805193901062, 0.3600342869758606, -0.1423894762992859, -0.6108699440956116, 0.3486003875732422, -0.25368374586105347, -0.14314593374729156, 0.3765745162963867, 0.45800983905792236, 0.28757593035697937, 0.14248323440551758], [-0.43332958221435547, -0.6203426122665405, -0.4240639805793762, 0.1565171331167221, 0.17497894167900085, -0.46927475929260254, 0.3115469813346863, 0.4556078314781189, -0.2847936153411865, -0.10145121812820435, -0.3273855447769165, -0.7996824979782104, -0.2957102060317993, -0.14161884784698486, -0.07261776924133301, 0.447967529296875, -0.056987471878528595, 0.13883736729621887, 0.20842474699020386, 0.21105140447616577, -0.37830185890197754, -0.23462450504302979, -0.3228223919868469, 0.05407511442899704, -0.27566075325012207, 0.19218581914901733, -0.11886143684387207, -0.29592645168304443, -0.4020664691925049, -0.2608124017715454, -0.02783334255218506, 0.4860849380493164, -0.4997216463088989, 0.2477128803730011, 0.5768107771873474, -0.13607469201087952, 0.05722743272781372, -0.16422593593597412, -0.36955201625823975, -0.39133912324905396, -0.06104658544063568, 0.44682300090789795, 0.3108533024787903, -0.1624290943145752, -0.23043584823608398, -0.3919016718864441, 0.3219723105430603, 0.3454517126083374, 0.17772924900054932, 0.038854897022247314, 0.07226693630218506, 0.495031476020813, 0.4006229043006897, -0.3793836832046509, -0.4921373724937439, 0.006287574768066406, 0.10525232553482056, 0.08875542879104614, 0.18147194385528564, 0.01655334234237671, -0.28021109104156494, 0.26129990816116333, -0.4946022033691406, 0.06398665904998779], [-0.4516027569770813, -0.2983531355857849, -0.3519488573074341, -0.4887182116508484, 0.3752956986427307, 0.4475007653236389, -0.2824939489364624, 0.245313823223114, 0.1837920993566513, -0.062349557876586914, -0.20119410753250122, -0.06920525431632996, 0.6350357532501221, -0.04473280906677246, 0.39933639764785767, 0.1874053031206131, -0.00016862154006958008, 0.49570754170417786, -0.05362620949745178, 0.014899015426635742, -0.38796359300613403, 0.3219865560531616, 0.4247206747531891, 0.04029705747961998, 0.4922846555709839, -0.07749585062265396, 0.3367215096950531, 0.3852848410606384, -0.29554998874664307, -0.05692863464355469, -0.4817703366279602, 0.19462502002716064, -0.15131217241287231, 0.21188539266586304, 0.3299521803855896, 0.4119901657104492, -0.15247797966003418, 0.17265737056732178, -0.43617480993270874, 0.2852100133895874, 0.31575682759284973, 0.6357549428939819, -0.27880433201789856, -0.21068018674850464, 0.05915321409702301, 0.45799124240875244, -0.6435695886611938, 0.4389112591743469, -0.01372683048248291, -0.3670448660850525, 0.3172840178012848, -0.07423233985900879, -0.6283235549926758, -0.12001192569732666, -0.21179050207138062, 0.10475295782089233, -0.13603496551513672, -0.40506207942962646, 0.48756176233291626, -0.43186748027801514, 0.07622408866882324, -0.3250798285007477, -0.08897829055786133, 0.05870245397090912], [-0.6488717794418335, -0.12187182903289795, 0.1343352198600769, 0.007982134819030762, -0.2836141586303711, -0.18068701028823853, 0.37645548582077026, 0.11991500854492188, -0.20862728357315063, -0.4258185029029846, -0.05003605782985687, -0.03274798393249512, -0.20391255617141724, -0.5626457929611206, 0.43942397832870483, -0.25243079662323, 0.0999218225479126, -0.10939586162567139, -0.44776225090026855, -0.03135371208190918, 0.0674608051776886, 0.1123170256614685, 0.38419413566589355, 0.2640252113342285, 0.047647297382354736, -0.28766608238220215, -0.21990913152694702, -0.12901943922042847, -0.2657637596130371, -0.3290470540523529, -0.20218276977539062, 0.7685216069221497, 0.4357494115829468, -0.2287033200263977, 0.4318501949310303, 0.22060656547546387, -0.1877610683441162, 0.4965936541557312, -0.20962375402450562, 0.325642466545105, 0.3176646828651428, 0.40070122480392456, 0.3296056389808655, -0.1248999834060669, 0.1410755217075348, -0.010243326425552368, -0.18447327613830566, 0.08570824563503265, -0.6101529598236084, 0.07148466259241104, -0.02200279012322426, -0.2000773549079895, -0.3006671071052551, -0.1884305477142334, 0.20601361989974976, 0.05034621059894562, 0.3939470648765564, 0.09469932317733765, 0.3558938503265381, 0.23490303754806519, -0.3937993049621582, 0.003342241048812866, 0.055682361125946045, -0.32820945978164673], [0.02249160408973694, -0.15860775113105774, 0.702401876449585, -0.03508025407791138, -0.34677666425704956, 0.11176955699920654, -0.3272687792778015, 0.43032145500183105, 0.34686243534088135, 0.05177867412567139, -0.07198995351791382, 0.1477752923965454, -0.06354373693466187, -0.171841561794281, 0.10708463191986084, -0.26177895069122314, 0.32370227575302124, 0.3672022223472595, -0.07950295507907867, 0.4217623770236969, 0.4386323094367981, 0.7606490850448608, -0.017754793167114258, 0.04591590166091919, 0.3839920163154602, -0.2716621160507202, 0.4944647550582886, -0.09985947608947754, -0.386433482170105, 0.18362590670585632, 0.04834866523742676, 0.07558192312717438, 0.46180909872055054, 0.031132280826568604, -0.2727885842323303, 0.18358248472213745, 0.2532246708869934, -0.1308271288871765, -0.21748417615890503, -0.11524618417024612, 0.4520377516746521, 0.36145228147506714, -0.6349396705627441, -0.3962166905403137, -0.3268890976905823, -0.3548356294631958, 0.42648845911026, 0.28379541635513306, 0.046092525124549866, 0.3564659655094147, 0.22799259424209595, 0.1738804578781128, 0.07388526201248169, 0.062100425362586975, 0.06724196672439575, -0.49119073152542114, 0.3536795377731323, 0.01316988468170166, -0.09921711683273315, 0.6333199143409729, -0.2731538414955139, -0.03579944372177124, -0.04785346984863281, 0.22851026058197021], [-0.3091745376586914, 0.28811025619506836, -0.2520565986633301, -0.49867910146713257, -0.23859399557113647, -0.3927602171897888, 0.28476202487945557, -0.4726966619491577, 0.33825284242630005, -0.14455059170722961, -0.06629350781440735, -0.28953808546066284, 0.2757389545440674, -0.0484963059425354, -0.07615125179290771, -0.2586992383003235, 0.3694567084312439, 0.3890989422798157, -0.11002177000045776, 0.49790143966674805, 0.16299325227737427, -0.022251546382904053, 0.41078799962997437, -0.2565174102783203, -0.20835989713668823, -0.0077229635789990425, 0.3310355544090271, -0.07764524221420288, -0.07954555749893188, 0.16151873767375946, 0.18476492166519165, 0.5256909132003784, -0.16550958156585693, -0.06529202312231064, -0.0021399259567260742, 0.2568439245223999, -0.06698733568191528, -0.49191874265670776, -0.4311414361000061, 0.4840558171272278, -0.019389264285564423, 0.04175072908401489, -0.22555555403232574, -0.39545363187789917, -0.24913835525512695, -0.27503103017807007, -0.6543077230453491, -0.12470996379852295, 0.03201240301132202, 0.501449465751648, 0.2540450692176819, -0.3299442529678345, -0.34133070707321167, 